<?xml version="1.0"?>
<opencv_storage>
<svm type_id="opencv-ml-svm">
  <svm_type>C_SVC</svm_type>
  <kernel><type>LINEAR</type></kernel>
  <C>1.</C>
  <term_criteria><epsilon>2.2204460492503131e-016</epsilon>
    <iterations>1000</iterations></term_criteria>
  <var_all>2268</var_all>
  <var_count>2268</var_count>
  <class_count>10</class_count>
  <class_labels type_id="opencv-matrix">
    <rows>1</rows>
    <cols>10</cols>
    <dt>i</dt>
    <data>
      0 1 2 3 4 5 6 7 8 9</data></class_labels>
  <sv_total>45</sv_total>
  <support_vectors>
    <_>
      -1.21434306e-004 -7.89705373e-004 2.05833223e-002 4.55144756e-002
      -4.04663756e-002 -2.10669488e-004 -1.77688591e-004
      -3.78044060e-004 -9.96097006e-005 -3.48632457e-003 2.39920383e-003
      7.39622563e-002 3.59979160e-002 -1.01414286e-001 -2.93527208e-002
      -5.69148315e-003 -3.38619249e-003 -6.65199663e-003 2.09806953e-003
      1.21250469e-002 6.08669855e-002 2.44105421e-002 -5.45293465e-002
      -1.17729800e-002 -5.39477589e-003 -5.13032835e-004
      -1.99295091e-003 2.96000042e-003 4.42229863e-003 5.08254692e-002
      8.48049577e-003 -4.34135161e-002 -1.13137309e-002 -4.59403079e-003
      -1.60958420e-003 -6.69921574e-004 3.17759141e-002 4.72878069e-002
      1.24240376e-001 -5.87149523e-003 -8.78396034e-002 -1.10673502e-001
      -5.35417162e-002 4.83089266e-003 2.14532968e-002 3.61711904e-002
      3.52248289e-002 7.63185695e-002 1.48340585e-002 -2.94767134e-002
      -2.92641502e-002 -3.67385074e-002 -6.97457884e-003 2.49508265e-002
      2.19362136e-003 5.40363742e-003 3.20746601e-002 -4.12657764e-003
      -1.55782057e-002 -2.27789674e-003 5.80879569e-004 -2.35930383e-005
      -5.77236759e-004 2.17091404e-002 3.56604159e-002 5.87870590e-002
      4.11491953e-002 -4.66789231e-002 -5.00420444e-002 -1.80686992e-002
      8.31056794e-004 1.56031176e-002 1.92002337e-002 1.47359520e-002
      2.36890558e-002 -1.60347521e-002 -3.95496972e-002 -1.82361028e-003
      -8.01593531e-003 -2.16442184e-003 2.02067159e-002 -4.02986398e-003
      3.52814561e-003 8.15935582e-002 2.91896164e-002 -8.67271572e-002
      -3.70786525e-002 -8.16461910e-003 -4.49496368e-003
      -8.11859127e-003 4.72559873e-003 2.40885522e-002 8.40874985e-002
      2.57990714e-002 -8.27125460e-002 -1.79807283e-002 -1.11512085e-002
      -4.56971320e-004 -2.77220295e-003 7.07937311e-003 2.64034364e-002
      4.01464403e-002 -6.99086860e-003 -2.54490003e-002 -6.95586845e-004
      -1.13176182e-003 3.92934214e-003 9.98358824e-004 4.12475727e-002
      4.70389090e-002 1.16778582e-001 9.44393035e-003 -1.00111261e-001
      -1.05363727e-001 -6.47222400e-002 6.69232709e-003 3.01188044e-002
      2.79218834e-002 2.52317395e-002 7.25957304e-002 7.91198574e-003
      -3.67815793e-002 -2.02806368e-002 -4.00646478e-002
      -4.27393708e-003 2.50281598e-002 7.00241188e-003 1.81178339e-002
      1.98883731e-002 -1.84409469e-002 -1.88429244e-002 1.16296522e-002
      8.34215619e-003 7.17626093e-003 2.82394979e-002 2.97310352e-002
      3.76989134e-002 5.63300885e-002 4.02726941e-002 -3.85940596e-002
      -5.38977832e-002 -2.39338502e-002 1.91431725e-003 2.57487409e-002
      2.68986877e-002 9.93624050e-003 1.29449172e-002 -3.52445655e-002
      -5.80042601e-002 -3.24492157e-003 -1.69449765e-002
      -2.90147425e-003 2.72285454e-002 1.14045041e-002 -1.75740104e-002
      -1.21576497e-002 -1.73369180e-002 -6.60943193e-003 1.85386231e-003
      1.76729076e-002 1.45932119e-002 2.41733808e-002 5.49784349e-003
      2.70258281e-002 7.20939040e-002 9.62100178e-003 -7.24222288e-002
      -6.78669242e-003 -1.02068465e-002 1.05731550e-003 -1.23926345e-003
      1.19079594e-002 4.78176549e-002 5.29835783e-002 -3.76545312e-003
      -2.99783126e-002 1.40954496e-003 7.12002278e-004 8.73613544e-003
      2.04171566e-003 1.58622991e-002 2.30551772e-002 5.94830234e-003
      -3.25294095e-003 -1.52829029e-002 -8.58739309e-004 1.59770660e-002
      1.32730706e-002 4.20301966e-003 3.29192989e-002 2.22253520e-002
      6.08822629e-002 -2.66419128e-002 -1.77253466e-002 4.64562792e-003
      -2.31218450e-002 -1.06719574e-002 2.22815145e-002 6.46294048e-003
      1.82110313e-002 2.31698398e-002 -1.52964545e-002 -8.14198516e-003
      1.85819324e-002 6.77124131e-003 8.52098316e-003 1.36639364e-002
      1.53906541e-002 2.05068905e-002 2.20710388e-003 -1.30343996e-002
      1.14139271e-004 1.57027121e-003 9.00224969e-003 -8.51023884e-004
      2.32366584e-002 2.88318414e-002 -1.92675376e-004 4.40367917e-003
      -3.80004123e-002 -5.39672300e-002 3.86969349e-003 -8.14454351e-003
      -4.53153718e-003 2.66683809e-002 -3.27135576e-003 -1.21668559e-002
      -1.43694915e-002 -2.03605220e-002 -5.12236264e-003 3.10282293e-003
      1.39336586e-002 9.24963411e-003 1.22364098e-002 3.39528662e-003
      -6.76279771e-004 -4.97222738e-003 -1.56977531e-002
      -2.83621391e-003 8.75647529e-004 8.73762369e-003 1.07738869e-002
      -1.16374679e-002 8.42499826e-003 3.44246030e-002 3.32792848e-002
      -2.48133596e-002 -3.92261222e-002 -7.45788682e-003
      -7.86221179e-004 6.83929119e-003 4.81362833e-004 2.00354736e-002
      2.50927936e-002 5.28349169e-003 -2.91993958e-003 -3.17029171e-002
      -1.41482344e-002 1.27464300e-002 1.65408850e-002 7.67180417e-003
      5.34644304e-003 1.04482018e-003 -1.45179383e-003 4.40733507e-003
      -6.41990965e-003 -5.83278388e-003 1.47135751e-002 1.48767959e-002
      1.55799752e-002 -3.54969036e-003 2.34332085e-002 1.10969972e-002
      -1.75110251e-002 -2.18624417e-002 -6.04627561e-003 4.72882111e-003
      7.12580374e-003 2.33522197e-003 8.21053516e-003 1.93135925e-002
      -1.82848074e-003 -1.29068773e-002 -2.64948010e-002
      -6.34289999e-003 -4.82550729e-003 -4.82445955e-003 1.88736748e-002
      6.05565263e-003 1.06350845e-002 6.30533928e-003 3.71296145e-003
      -6.97422586e-003 2.98130792e-003 1.76174182e-003 2.19098274e-002
      1.08526303e-002 -3.21021164e-003 -7.01174606e-003 7.19610369e-004
      -1.48894787e-002 -9.25031491e-003 -2.20379839e-003 1.35072432e-002
      2.71479203e-003 5.47916209e-003 -3.06885643e-003 1.93024974e-003
      -5.10451803e-003 -1.46863414e-002 -1.65538639e-002
      -3.55286174e-003 -7.07414409e-004 8.93970113e-003 -2.58385818e-002
      -1.97631661e-002 -4.52728942e-003 -6.07213995e-004
      -3.32542066e-003 4.86518908e-003 1.87804879e-004 -1.77465584e-002
      -1.49381871e-003 3.40955169e-003 1.42322453e-002 1.30089363e-002
      1.07407710e-003 -8.36893334e-004 -2.02973653e-002 -1.40341334e-002
      1.00455303e-002 7.44898058e-003 6.65091863e-003 4.37099813e-003
      7.83932555e-005 -1.43773120e-003 5.73823368e-003 -9.83036775e-003
      -1.44924363e-002 2.26560254e-002 1.79542582e-002 1.70988087e-002
      -2.22880370e-003 1.48234563e-003 -1.30836433e-003 1.81467924e-003
      -1.08478749e-002 -1.99124739e-002 4.19299006e-002 2.81462986e-002
      3.31950863e-003 -1.73837238e-003 1.76063403e-002 1.95000973e-003
      -1.44505184e-002 -2.88222618e-002 -7.90554471e-003
      -1.19739808e-002 -1.48407249e-002 1.25956573e-002 6.24744780e-003
      1.28653841e-002 1.15936715e-002 8.62747617e-003 -4.08724649e-003
      -9.47809871e-003 1.22312019e-002 1.60358846e-002 9.76533536e-003
      -4.04710975e-003 1.83875747e-002 2.11091456e-003 -5.85260859e-004
      -1.29873352e-002 -8.19812343e-003 3.91485728e-002 3.19436402e-003
      1.99844129e-003 3.87193775e-003 1.01625398e-002 7.01768044e-003
      -6.73079398e-003 -1.08572785e-002 -2.73530767e-003
      -1.09772440e-002 4.40443959e-003 -2.00271551e-002 -1.07408147e-002
      -3.69046698e-003 -2.32637906e-003 -1.03604479e-003 3.75890522e-003
      -1.80609315e-003 -2.84455642e-002 -1.31548801e-003 3.29379109e-003
      -7.37218326e-003 -2.05360185e-002 -2.44530048e-002
      -5.38792182e-003 1.41621521e-003 -3.63506097e-003 -6.02147775e-003
      -1.18387919e-002 6.10527350e-003 1.21073506e-003 -1.61132048e-004
      -1.11794252e-004 3.33958864e-003 -7.06750574e-003 -8.77838675e-003
      1.97361223e-002 1.16943419e-002 1.14294542e-002 -1.21837633e-003
      5.35344519e-003 -1.29541941e-003 1.65376009e-003 -1.71868745e-002
      -1.51930880e-002 5.63919060e-002 3.03116664e-002 3.51922796e-003
      4.48238384e-003 7.44872913e-003 -9.93577018e-003 -2.36141048e-002
      -5.03362417e-002 4.64172252e-002 8.13940167e-002 1.23395864e-002
      1.95288088e-003 4.56301356e-003 3.22363935e-002 2.35654544e-002
      1.00208297e-002 -2.11332762e-003 -1.50062302e-002 7.92013761e-003
      7.26290978e-003 1.52695859e-002 5.07465890e-003 1.21848341e-002
      -7.86234625e-003 -1.04134483e-003 -2.16257814e-002
      -1.24096544e-002 3.08040436e-002 6.74168440e-003 7.61609757e-004
      3.52243334e-002 -1.02281766e-002 -8.43719915e-002 -7.39127472e-002
      -3.92063446e-002 6.20357804e-002 8.37428048e-002 2.08012238e-002
      3.01729422e-002 -7.43427640e-003 8.72666668e-003 1.78588461e-003
      1.58422720e-003 3.14638740e-003 -5.68284653e-003 -3.44417915e-002
      -1.45954806e-002 1.05902255e-002 -2.74630438e-004 -1.79307628e-002
      -2.93924306e-002 -3.32806120e-003 -1.28556753e-003
      -5.94216259e-003 -1.07973106e-002 -9.49618313e-003 8.33342958e-004
      1.45687647e-002 -2.94380561e-002 -5.63632213e-002 -2.84131151e-002
      -1.34282680e-002 3.92225161e-002 3.54373939e-002 -7.29114609e-003
      2.12417692e-002 -3.94731382e-004 3.42093385e-003 -1.51874206e-003
      -1.49582257e-003 -1.65963564e-002 -7.05481274e-003 3.65679748e-002
      1.13578299e-002 1.60415992e-004 3.96582438e-003 5.88002987e-003
      -8.49184021e-003 -2.72445362e-002 -6.30772635e-002 7.44364336e-002
      7.97716007e-002 7.19563151e-003 1.30277628e-003 -1.72678148e-003
      -2.63581495e-003 -6.07170910e-003 -3.07170991e-002
      -4.18429896e-002 1.10226661e-001 2.55791843e-002 -1.47871455e-004
      -1.13172422e-003 6.80614961e-003 2.11447496e-002 -6.51555508e-003
      -3.18529317e-003 -2.35612541e-002 -1.34866387e-002 4.29045781e-002
      9.65889264e-003 1.30302785e-002 3.60436514e-002 -1.02709895e-002
      -8.73436555e-002 -9.27502364e-002 -4.65714708e-002 1.00073919e-001
      9.04093236e-002 2.32467335e-002 2.87054460e-002 -1.31071368e-002
      -2.28214413e-002 -5.57809584e-002 -1.13945112e-001
      -2.79352311e-002 9.29169133e-002 5.74313439e-002 4.01328923e-003
      -1.07624931e-002 -6.68229861e-003 -2.56940187e-003
      -1.57174189e-002 -5.05720032e-004 -2.30490486e-003
      -6.64711930e-003 -5.77669637e-003 -2.87487544e-002
      -2.23930739e-003 5.70777850e-003 -2.53629722e-002 -5.35193719e-002
      -3.14542912e-002 -2.84950696e-002 5.29384837e-002 3.72989997e-002
      -1.06363818e-002 4.97018220e-003 -1.28070246e-002 -2.10387576e-002
      -3.75326201e-002 -4.72468026e-002 -1.27040865e-002 8.93354788e-002
      2.76136138e-002 -5.88752737e-004 -1.07154204e-002 3.18982569e-003
      4.11933661e-003 2.36904006e-002 -1.73288155e-002 -5.47553822e-002
      -2.52871704e-003 -3.38113285e-004 3.20223589e-005 1.16807700e-003
      1.75009388e-002 2.28046048e-002 5.39806560e-002 3.21198888e-002
      -5.98218516e-002 -4.18103784e-002 -1.83661114e-002 8.56461644e-004
      1.50688114e-002 1.16244815e-002 8.41793604e-003 1.96510088e-002
      -2.16293596e-002 -4.62292656e-002 -1.04433401e-002
      -2.57835779e-002 -1.15257064e-002 1.56732183e-002 -6.92444679e-004
      1.26517182e-002 5.91863170e-002 -5.87270856e-002 -2.29617842e-002
      3.94818038e-002 2.65576392e-002 -1.83838478e-003 -4.62992955e-003
      2.88693048e-002 6.08021952e-002 1.12886138e-001 -4.68465360e-003
      -4.30513956e-002 -1.61394365e-002 -1.68217998e-002
      -8.86933296e-004 2.54796688e-002 2.99785212e-002 2.13393588e-002
      2.98357867e-002 -2.53485143e-002 -3.17667313e-002 -3.79796932e-003
      -2.35713087e-002 -2.33436897e-002 1.62559003e-002 -9.03074106e-004
      3.91327776e-003 2.22316477e-002 -2.57271379e-002 2.43967329e-003
      4.92024906e-002 2.72901566e-003 -2.50462908e-002 -8.29037372e-003
      6.13465300e-003 1.33950207e-002 4.60916422e-002 -6.26240391e-003
      -2.51481286e-003 3.28207240e-002 1.47481626e-002 -2.41024923e-002
      4.07845946e-003 -3.10512213e-003 -8.39684810e-003 1.24482410e-002
      -5.24024479e-003 -1.15351668e-002 4.58336482e-003 1.28854979e-002
      -2.32931483e-003 3.42002488e-003 2.26935484e-002 2.97324266e-002
      4.97144610e-002 4.69547510e-002 -4.20270525e-002 -6.61489367e-002
      -3.95837426e-002 -3.46718123e-003 2.14922596e-002 1.82029456e-002
      9.23550688e-003 2.47339457e-002 -2.78043691e-002 -4.90820482e-002
      -2.46284995e-002 -3.58268209e-002 -2.25942247e-002 1.24329757e-002
      3.83178866e-003 -1.29564409e-003 2.52543436e-003 -8.74816161e-003
      -4.05508932e-003 -3.10251024e-003 -4.44099959e-003 1.92714133e-003
      4.35052207e-003 3.64101082e-002 7.53583238e-002 1.08264014e-001
      1.23939179e-002 -4.18266505e-002 -3.92089784e-002 -3.53175476e-002
      -4.17532353e-003 3.03622037e-002 2.00771540e-002 2.65398598e-003
      9.72053502e-003 -2.81407852e-002 -3.58291306e-002 -9.22946259e-003
      -4.80559058e-002 -3.58298831e-002 1.01321097e-002 2.10883911e-003
      -1.98005196e-002 -2.97331437e-002 -1.78328976e-002
      -1.49321137e-002 -1.11207748e-002 -2.23116134e-003
      -7.10810709e-004 1.64847560e-002 7.10983109e-003 1.26314284e-002
      4.33658399e-002 -2.19543115e-003 1.56244291e-002 2.36748010e-002
      7.43250130e-003 -2.46786606e-002 2.12774123e-003 -7.96262454e-003
      -1.35789607e-002 8.37996230e-003 -9.60692391e-003 -1.97659861e-002
      4.63529723e-003 1.52706075e-002 -5.44276321e-003 1.03666994e-003
      1.21821498e-003 -3.29013690e-002 -1.72061659e-002 -2.90369801e-003
      -3.73385125e-003 8.90771509e-004 8.63811839e-003 -1.26333477e-003
      1.20671494e-002 2.10838336e-002 8.31078365e-003 1.82035360e-002
      -3.26749012e-002 -4.62246202e-002 -2.95212306e-003
      -1.92495901e-002 -2.02266481e-002 1.89360455e-002 2.04565302e-002
      7.61497254e-003 7.14526884e-003 -8.54801200e-003 -1.63746218e-003
      1.40338182e-003 6.40106807e-003 1.39336139e-002 1.76384766e-002
      1.00022089e-002 1.85383242e-002 1.82331447e-002 -2.86007952e-003
      2.13214057e-003 2.88608717e-003 -2.46882881e-003 5.28498925e-003
      9.67252359e-004 2.97932029e-002 2.31507863e-003 5.67942811e-003
      -2.57700272e-002 -2.66441628e-002 9.31224786e-003 -1.10511882e-002
      -1.97676420e-002 2.44612508e-002 -2.03751540e-003 -8.98810476e-003
      -3.64037976e-002 -1.83215402e-002 -7.58052012e-003 3.10305366e-003
      8.16365238e-003 2.13568914e-003 1.36562558e-002 1.05116582e-002
      -1.28008577e-003 -3.24744382e-003 -1.25560258e-002
      -1.39638805e-003 2.61271046e-003 1.07898926e-002 9.55239497e-003
      -3.77610256e-003 -2.96127587e-003 -1.55869508e-002 4.07628436e-003
      -6.63198764e-003 -1.04062781e-002 7.95575883e-003 2.19414383e-002
      9.35152452e-003 9.93563328e-003 -7.80159468e-003 -3.18813808e-002
      -1.92750636e-002 -1.74177578e-003 4.77824971e-004 5.90709317e-003
      1.23491250e-002 -1.01574627e-003 1.84982754e-002 -4.34287963e-003
      -2.48983912e-002 -1.56394970e-002 -1.22856186e-003 2.45103729e-003
      5.02299005e-003 4.17959783e-003 4.43476019e-003 7.60208676e-003
      1.20542559e-003 4.01102938e-003 7.45499274e-003 -4.36124485e-003
      1.56430644e-003 1.54326181e-003 1.22899506e-002 4.04596515e-003
      7.95004796e-003 1.18475305e-002 2.54538003e-002 2.25746930e-002
      -2.42535677e-003 1.55577646e-003 3.74881132e-003 4.03472409e-003
      3.04976734e-003 2.28515873e-003 -9.38650779e-003 2.49504633e-002
      2.25509759e-002 2.51146941e-003 1.05926879e-002 4.45897691e-003
      -6.27262145e-003 -5.84766082e-003 4.20564041e-003 2.83253915e-003
      -1.51552474e-002 -2.51352396e-002 -1.85019933e-002
      -6.34352909e-003 4.93514119e-003 1.95902493e-002 1.17719406e-002
      1.26010207e-002 -1.74053814e-002 -5.02314931e-003 -1.14289522e-002
      -1.41493464e-002 -1.25790471e-002 -2.93336716e-003 8.89782608e-003
      -4.56548587e-004 -5.96498838e-003 -6.97796745e-003
      -1.37712108e-002 -4.06775012e-004 7.05485605e-003 1.31801469e-002
      7.40786362e-003 -1.06091499e-002 1.02319391e-002 1.26126520e-002
      -1.14684468e-002 -2.46933401e-002 -1.44054582e-002
      -1.95184490e-003 -7.29061314e-004 3.95742944e-003 7.31270434e-003
      -6.66467147e-003 -8.53052922e-003 -2.02891324e-002
      -3.06873377e-002 -1.26012936e-002 -1.14125665e-003 3.62539059e-003
      5.56022208e-003 4.55000438e-003 4.05659433e-003 -9.92070418e-003
      -1.26310764e-002 -1.02449181e-002 3.83708207e-003 2.93216319e-003
      1.31888250e-002 5.06983604e-003 1.56482006e-003 1.04082059e-002
      -1.24051617e-002 -1.34774810e-003 2.74434835e-002 2.31102444e-002
      -1.14874984e-003 4.51155793e-005 1.29306072e-003 3.86235747e-003
      -3.55938519e-003 -1.07753715e-002 1.76123076e-003 2.17517503e-002
      2.29109135e-002 4.56667272e-003 1.24229239e-002 4.55250591e-003
      -3.75808147e-003 -7.00896326e-003 6.85901521e-003 -1.24556441e-002
      7.70221325e-003 -2.01443769e-003 1.42013270e-003 7.56238587e-003
      2.95918714e-003 2.04893760e-002 2.83058453e-003 -7.55201152e-004
      -6.79928809e-003 -6.35978067e-003 -7.60892779e-003
      -8.72100610e-003 -1.00023514e-002 -2.79139774e-003 1.03663793e-002
      2.73336540e-003 -4.15561395e-003 -6.88350573e-003 -1.58910044e-002
      -2.79615144e-003 9.37391538e-003 2.14016233e-002 8.87449645e-003
      -1.63833350e-002 -5.69296186e-004 2.19619423e-002 4.97397128e-003
      -2.54585501e-002 -1.35305123e-002 1.16178906e-002 1.69888735e-002
      1.15341293e-002 -5.84139302e-003 1.61866248e-002 1.35222431e-002
      -1.70585904e-002 -2.04174295e-002 -6.18596887e-003 3.67119064e-005
      3.80461756e-003 4.60009044e-003 2.90572853e-003 4.85885143e-003
      -1.53133478e-002 -1.02728447e-002 -4.81095351e-003 4.95896302e-003
      4.19966178e-003 1.37980506e-002 5.04324585e-003 5.75646933e-004
      1.12908753e-002 -1.10085690e-002 -3.45818955e-003 3.99145810e-003
      1.78313106e-002 5.61205251e-003 3.26561509e-003 1.27078471e-004
      -2.99732969e-003 8.10747966e-003 -1.54115055e-002 -1.03194704e-002
      1.58797018e-002 1.43837826e-002 3.29830544e-003 7.62987137e-003
      1.99120352e-003 -3.83879989e-003 -8.27114377e-003 2.83133076e-003
      -6.97740214e-003 -3.59411421e-003 -1.51622975e-002
      -7.70001498e-004 7.37687852e-003 4.22092015e-003 2.52102409e-002
      7.40392087e-003 3.86657706e-003 2.43894057e-003 -2.16290057e-002
      -6.48906603e-002 -3.25897075e-002 -1.22725563e-002 4.78970222e-002
      4.10659388e-002 9.70501080e-003 1.53517202e-002 -2.53751804e-003
      -1.58204846e-002 -8.28879327e-003 5.36428811e-003 1.88430827e-002
      -2.66689435e-003 -3.40392329e-002 -7.51392543e-003 2.36995574e-002
      -2.78820982e-003 -2.65440922e-002 -8.91591981e-003 1.46532487e-002
      1.69369224e-002 9.18683130e-003 -8.28135945e-003 1.02574313e-002
      1.22708715e-002 -1.57640520e-002 -3.80917229e-002 -1.58596542e-002
      9.91109386e-003 -5.49295219e-003 4.95079085e-002 5.71404845e-002
      2.31490415e-002 4.86002583e-003 -8.27265158e-003 -2.85247370e-004
      1.24372952e-002 1.99873745e-003 4.32541221e-003 -5.64796268e-004
      -2.02624407e-003 4.93247714e-003 -1.93349496e-002 -6.01392007e-003
      6.34007715e-003 2.18180027e-002 7.11900461e-003 -7.97669578e-004
      -3.42286984e-003 -4.29199729e-003 2.01069308e-003 -1.21354694e-002
      -3.21568400e-002 5.80196269e-003 4.54248078e-002 1.94862168e-002
      6.03882177e-003 1.49001237e-002 1.89752374e-002 1.69313233e-002
      -2.05405112e-002 -9.68199689e-003 -4.11654543e-003
      -1.14477091e-002 -1.17345341e-003 8.17951048e-004 4.68538085e-004
      1.38269467e-002 -1.49503845e-004 3.79469525e-003 6.40573399e-003
      -1.60894636e-002 -4.51700203e-002 -2.83295047e-002
      -1.52264405e-002 5.44053949e-002 4.15032320e-002 1.87348074e-003
      1.25958500e-002 -3.24683264e-004 -7.28747807e-003 -1.91169791e-002
      -3.33412960e-002 -2.28360202e-002 8.94909278e-002 2.17326805e-002
      4.11572773e-003 4.11765359e-004 -1.29773989e-002 -2.79400218e-002
      -1.02849640e-002 8.33973289e-003 9.83746257e-003 -4.06048866e-003
      -9.05792974e-003 8.78354069e-003 1.02991713e-002 -2.42170114e-002
      -4.27972637e-002 -2.34216023e-002 -3.26497317e-003
      -1.43688929e-004 7.25535676e-002 7.14463070e-002 1.08076008e-002
      -3.60796461e-003 -2.07124148e-002 -3.10630277e-002
      -9.11487825e-003 -2.66471971e-002 1.79046374e-002 5.88826835e-002
      5.39093167e-002 3.96708900e-004 -1.61609370e-002 -1.27648413e-002
      4.45980392e-003 2.40235236e-002 3.32271005e-003 -6.17519766e-003
      -5.94702270e-003 -5.64060127e-003 1.95768033e-003 -1.88374482e-002
      -3.21426503e-002 -8.41272355e-004 4.14847434e-002 2.47369222e-002
      3.10185924e-003 1.84160452e-002 1.77517086e-002 5.33026503e-003
      -2.39334702e-002 -2.87234094e-002 -8.71006120e-003 1.24391802e-002
      3.75575200e-002 -1.64772924e-002 4.81454618e-002 1.22556780e-002
      -5.81635814e-003 -2.42128652e-002 -3.51321045e-003 4.21600183e-003
      2.13916264e-002 -4.23949808e-002 -3.59053910e-002 3.57338451e-002
      8.06019828e-003 -9.34065878e-003 -6.15085987e-003 6.32438529e-003
      2.08468642e-002 5.19717522e-002 -1.03481133e-002 -1.99498776e-002
      1.17579708e-002 1.54103916e-002 -5.70098264e-003 9.13210586e-003
      -1.90748181e-003 2.15728651e-003 1.74736679e-002 -2.47625876e-002
      -3.95226665e-002 -5.56548638e-003 2.92944722e-003 -1.23571372e-002
      -4.14742995e-003 -4.42580413e-003 5.91354631e-003 5.10197431e-002
      -5.57673909e-002 1.97962932e-002 9.93568748e-002 -1.48837622e-002
      -5.90005666e-002 -2.55526844e-002 5.80487680e-003 1.08736120e-002
      4.01133560e-002 -5.18051628e-003 -2.87899598e-002 7.59484842e-002
      2.86717173e-002 -3.55669409e-002 -2.16073710e-002 -2.42413972e-002
      -2.81796288e-002 -5.52256173e-003 -1.66484695e-002
      -1.43603627e-002 1.10790059e-002 1.14897061e-002 -1.23415468e-002
      -1.09417783e-002 -6.67961454e-003 -3.11352639e-003
      -7.98928959e-004 -1.96531769e-002 1.15321707e-002 1.13258436e-001
      1.51846129e-002 -5.94773469e-003 -1.36641143e-002 -5.21840202e-003
      1.02662336e-004 1.28264504e-003 -4.46835347e-003 6.90697227e-003
      6.07275255e-002 2.17141993e-002 -1.12315705e-002 -3.91943427e-003
      -4.65323590e-003 6.12627249e-004 -3.57921747e-003 -1.75815902e-003
      -2.06583180e-003 8.80846567e-003 5.58051839e-003 -1.03337001e-002
      7.76904961e-003 8.79386347e-003 1.99992657e-002 4.69432548e-002
      -4.09134245e-003 -7.30815064e-003 5.51674701e-003 1.05722090e-002
      -1.87782652e-003 1.11393277e-002 1.10600330e-002 -3.72848124e-003
      4.58897091e-003 -2.47236155e-002 -4.03856672e-002 -5.49659785e-003
      5.48223779e-003 -1.10023562e-002 -1.24277163e-003 1.53515814e-002
      -2.14281529e-002 -8.73785280e-003 -4.57201619e-003
      -4.65803780e-003 -1.19829352e-003 1.72003487e-003 -1.24930032e-002
      1.69450766e-003 4.02923115e-003 4.20790864e-003 2.42632572e-002
      -1.32957324e-002 -2.08472926e-002 5.58545738e-002 2.59024277e-002
      -3.08163520e-002 -6.01472240e-003 -2.03410480e-002
      -2.59722099e-002 -2.57148445e-002 -1.62190069e-002
      -2.27941535e-002 9.79731139e-003 8.15807283e-003 6.34428626e-003
      -6.23707194e-003 3.78958997e-003 4.26877436e-004 -1.25874942e-002
      -1.52052641e-002 -2.82002464e-002 -4.52213129e-003 1.17150676e-002
      4.90042567e-003 -1.04195357e-003 -8.81494023e-003 -4.22991067e-003
      -3.82087252e-004 -7.65863433e-003 3.15043610e-003 5.08242249e-002
      1.45833259e-002 -1.12077165e-002 -2.62682931e-003 8.76891427e-003
      -8.21378361e-003 -1.06694335e-002 -4.52124374e-003
      -2.94966134e-003 1.19734658e-002 9.10430308e-003 -8.86179227e-003
      1.32994931e-002 3.58432229e-003 1.64517574e-002 1.32490862e-002
      -2.21785763e-003 -9.22057685e-003 -2.54094438e-003 6.30087306e-005
      -2.74672285e-002 -8.36704113e-003 9.03026480e-003 -8.53084400e-003
      3.80496238e-003 -1.74799636e-002 -2.65859477e-002 -7.82865856e-004
      5.94178727e-003 -7.21835438e-003 -9.17095225e-004 1.50272176e-002
      -2.59729344e-002 -1.35815749e-002 -5.12299640e-003
      -3.44356545e-003 -3.34257929e-004 3.22776451e-003 -1.20686656e-002
      2.90699652e-003 9.45574977e-003 -2.47716904e-002 -1.63936391e-002
      -1.75827020e-003 -4.02582169e-004 5.47183154e-004 1.87690335e-003
      -2.64624134e-003 -2.08795862e-003 -1.42374085e-002
      -2.75432579e-002 -2.57508252e-002 -1.05067268e-002
      -1.25679523e-002 4.85299574e-003 2.09062826e-002 2.65771504e-002
      3.92490911e-004 7.43969157e-003 3.55598051e-003 -8.92040785e-003
      -1.88681036e-002 -2.89159380e-002 -4.29174444e-003 1.23927940e-003
      1.88899003e-002 -2.25228351e-003 1.48997724e-003 2.64240149e-003
      2.11639274e-002 -3.71142570e-003 7.25315884e-004 2.29275203e-003
      2.20494196e-002 9.86387394e-003 1.32994102e-002 5.18249534e-003
      -5.39520523e-003 -9.67822038e-003 -4.04868554e-003
      -4.43699257e-003 4.92929760e-003 6.69659209e-003 -8.08408670e-003
      1.94766335e-002 5.00565581e-003 1.43217454e-002 2.09479369e-002
      -3.86028388e-003 -1.28016630e-002 -3.74615728e-003 1.73589657e-003
      -2.13036835e-002 4.82130656e-003 4.77817608e-003 1.38730844e-002
      3.00803781e-002 1.67939893e-003 -6.53531542e-003 -5.53308055e-003
      2.60697515e-003 -6.70990534e-003 2.47751176e-003 8.66213534e-003
      -2.36080866e-002 -1.71628166e-002 -4.45128232e-003
      -1.26991211e-003 -1.64249344e-004 2.07771477e-003 -1.04779359e-002
      -2.10072123e-003 -4.73147444e-003 -2.89673489e-002
      -2.02489700e-002 -2.08237534e-003 6.85180246e-004 1.01247651e-003
      6.15709287e-004 -1.11648836e-003 -4.77615464e-003 -3.25777335e-003
      -1.21588837e-002 -4.61176084e-003 2.58217123e-003 8.53407942e-003
      -4.08713333e-003 -7.92506337e-003 -3.02877870e-005
      -1.89955404e-003 6.32315758e-004 -1.53304287e-003 -7.07207713e-003
      -1.87372360e-002 -2.93447096e-002 -1.18982885e-003
      -3.08262929e-003 1.03619415e-002 -4.92316764e-003 -5.48839243e-003
      -3.18878156e-004 1.99660696e-002 -7.88689777e-003 -3.85329407e-003
      1.58962887e-003 1.55210793e-002 4.28583147e-003 -1.02897789e-002
      1.65228237e-004 2.42302753e-002 2.27501243e-002 7.55882030e-003
      -1.01079803e-003 8.54541827e-003 1.06732445e-002 2.17381269e-002
      8.74892063e-003 3.61119077e-004 1.76593345e-002 1.83523800e-002
      -4.98547172e-003 -1.24591077e-002 -3.81207839e-003
      -1.97648129e-004 -2.39040963e-002 -5.19805867e-003 5.26895560e-003
      2.52718851e-003 2.61487179e-002 -7.30031519e-004 -1.22536849e-002
      -7.20956270e-003 4.24205232e-003 9.24756657e-003 -9.41418111e-003
      7.96543062e-003 -6.04412332e-003 -1.39702428e-002 -8.98075523e-004
      -7.53551628e-003 -5.77383628e-003 -4.89123864e-003 1.57328397e-002
      -4.54244204e-003 -1.80160074e-004 -2.65856516e-002
      -1.70034692e-002 -1.82350108e-003 -5.34953433e-004 1.22737733e-003
      4.43620054e-004 2.19625910e-003 -4.63016890e-003 -3.02923727e-003
      -1.56395193e-002 -4.78916150e-003 2.05482589e-003 1.09048132e-002
      -2.12126062e-003 -1.45733897e-002 -6.33627456e-003 6.23661559e-004
      -1.57785675e-004 -7.33012753e-003 1.18298130e-002 2.48011365e-003
      -1.54946081e-003 -5.98180853e-003 -1.69012323e-002
      -9.07512382e-003 -3.94715229e-003 -1.04685994e-002 6.82541169e-003
      2.18959358e-002 -6.44158991e-003 -2.34810612e-003 2.86755478e-003
      1.79664977e-002 9.15305223e-003 -3.94773716e-003 -1.23690261e-004
      2.29930300e-002 2.59447694e-002 4.80566360e-003 -6.77920040e-003
      8.23323801e-003 5.50078694e-003 9.06215049e-003 1.34296343e-002
      1.61242299e-002 2.13825218e-002 3.38268280e-002 -3.09475727e-005
      -9.28559992e-003 -7.11559225e-003 -7.07794679e-003 8.05874006e-005
      1.17712561e-002 1.78265080e-004 3.49466107e-003 1.31712351e-002
      3.47700901e-004 -6.55413046e-003 -5.21648116e-003 2.34973966e-003
      7.28042377e-003 -1.02982568e-002 1.08888745e-002 -9.70420986e-003
      -1.52332364e-002 -5.33862971e-004 -6.96160225e-003
      -7.67775998e-003 -1.51167149e-002 1.81778539e-002 9.08267964e-003
      1.19771976e-002 1.44811533e-002 -4.68284544e-003 -6.35917531e-004
      -4.89414576e-003 -5.84010966e-003 -1.65709946e-002
      -2.43277941e-002 1.95591785e-002 3.66138457e-003 -6.16476545e-003
      -1.04086497e-003 6.62415929e-004 6.54751202e-003 -2.33235420e-003
      -1.50099341e-002 -6.54752832e-003 -5.77576226e-003
      -5.19999489e-003 -8.17522313e-003 1.53024979e-002 5.39711630e-003
      -1.77928444e-003 -1.03085870e-002 -2.32321825e-002
      -6.42619608e-003 -4.93706716e-003 -2.98803560e-002
      -1.26516446e-002 2.86468137e-002 9.68880393e-003 6.08502561e-003
      1.32420966e-002 1.13450317e-002 4.20042081e-003 -1.46318721e-002
      1.09253349e-002 2.77531091e-002 1.92925744e-002 2.57602124e-003
      -1.15893986e-002 -2.36983923e-003 -4.51881811e-003 6.48527592e-003
      -1.53562916e-003 1.40473284e-002 3.07909921e-002 3.97008583e-002
      1.08054103e-002 -1.20025212e-002 -1.67239923e-002 -1.67024396e-002
      -7.35324761e-003 -8.81844724e-004 -2.00898796e-002 2.33874768e-002
      6.72678947e-002 2.90345810e-002 -1.87338665e-002 -1.42779397e-002
      -2.42617186e-002 -1.65853892e-002 -2.89485324e-002 6.16279664e-003
      -1.14961229e-002 -1.72000360e-002 9.13445110e-005 -4.79462603e-003
      -7.88325630e-003 -2.26650741e-002 8.90507922e-003 6.67016581e-003
      1.63477901e-002 1.46313505e-002 3.79851437e-003 4.31586057e-003
      -5.99419558e-003 -8.44979007e-003 -2.71332748e-002
      -2.58683283e-002 1.31025976e-002 2.33645868e-002 1.80418808e-002
      4.58224118e-002 5.55526987e-002 -1.78172067e-002 -2.52099242e-002
      -4.64844406e-002 -4.44774106e-002 1.40247797e-003 -4.91459109e-003
      -1.74584484e-003 1.50467521e-002 2.93347822e-003 -2.33343267e-003
      -4.49899957e-003 -5.56934997e-003 -2.48194998e-003
      -8.36794637e-003 -2.91598793e-002 -7.42334221e-003 2.49061752e-002
      1.20762726e-002 3.38549330e-003 2.30077133e-002 1.73525959e-002
      3.53111350e-003 -1.15929041e-002 -1.48631269e-002 -1.12544559e-002
      -3.70924303e-004 8.49803444e-003 -4.15151455e-002 4.75185588e-002
      1.00733778e-002 -2.68326537e-003 -1.19154556e-002 -7.12459791e-004
      2.05086824e-002 3.64196859e-002 7.93069135e-003 -3.52898287e-003
      -1.30323051e-002 -1.07682925e-002 -5.05103823e-003
      -3.37465224e-003 -2.10797526e-002 2.19515990e-002 8.49959850e-002
      5.41375093e-002 -1.67064779e-002 4.14290885e-003 -5.39354980e-003
      -7.98508059e-003 -2.09537949e-002 -3.12389378e-002 3.67796421e-003
      6.68358356e-002 5.59877008e-002 -2.42474387e-004 1.23817911e-002
      1.43566960e-002 -1.20992595e-002 -2.94999536e-002 -6.60129217e-003
      8.76333658e-003 2.17838399e-003 3.50550516e-003 -3.22019332e-003
      -3.82458325e-003 -9.05014388e-003 -2.48393510e-002
      -7.57520727e-004 1.63353346e-002 1.57064423e-002 5.62413260e-002
      6.39174059e-002 -2.60801837e-002 -2.50032395e-002 -3.80673259e-002
      -3.67080010e-002 -1.02730971e-002 3.03918100e-003 9.24240146e-003
      3.71071286e-002 1.20100208e-001 -4.95788269e-002 -2.93029267e-002
      -2.43204664e-002 -9.71904676e-003 -1.40735414e-003
      -7.70206191e-003 -3.00119631e-003 4.70214291e-004 -2.48335805e-002
      -1.91013236e-002 8.24900046e-002 -8.44081305e-003 -3.10565531e-002
      -1.64234396e-002 -1.01311076e-002 -7.18124956e-003
      -2.57871021e-003 -1.23304036e-002 -3.08544170e-002 4.51435149e-002
      -6.85084937e-003 -4.98270355e-002 -2.62864847e-002
      -2.44317055e-002 -1.27499308e-002 -1.12915933e-002
      -9.68104880e-003 -2.77778283e-002 -6.47605676e-003
      -1.97508000e-002 -4.07711677e-002 -3.85319255e-002
      -3.51264030e-002 -1.59943923e-002 -1.04172910e-002
      -6.36103004e-002 8.93633999e-003 1.02651000e-001 1.60647593e-002
      -1.73441917e-002 -3.79091091e-002 -1.75460931e-002
      -2.83833072e-002 -9.99128725e-003 -2.12429594e-002
      -2.24943203e-003 1.02003165e-001 5.56599908e-002 -9.52301640e-003
      -2.18272805e-002 -2.24851258e-002 -3.08947396e-002
      -3.32780890e-002 -1.56018427e-002 -1.22800851e-002 2.53375974e-002
      2.69043986e-002 -7.90464133e-003 5.13471151e-003 -1.38441343e-002
      -5.24727441e-003 -4.80491482e-003 -1.45893944e-002
      -2.21440066e-002 9.84154418e-002 1.53797045e-002 -6.91015180e-003
      -1.45350695e-002 -3.08309738e-002 -2.70258356e-002
      -1.67868957e-002 -1.02454806e-002 1.46404607e-004 1.23170674e-001
      8.89448524e-002 4.00478253e-003 -1.98109727e-002 -3.31284255e-002
      -4.01464514e-002 -3.20512354e-002 -9.77201480e-003
      -2.54361914e-003 3.89479734e-002 6.02969714e-002 1.37842195e-002
      -7.51443394e-003 1.37347449e-003 -2.98570003e-003 -8.23551847e-004
      -1.32787991e-002 -2.79283021e-002 4.13343050e-002 3.71230301e-004
      -4.08240333e-002 -1.12612890e-002 -8.69776588e-003
      -1.19401272e-002 -1.30566088e-002 -5.73522272e-003
      -2.13997103e-002 -5.29832556e-004 -8.40016361e-003
      -1.93667151e-002 -9.77799017e-003 -2.10850238e-004 1.45532750e-002
      3.12681217e-003 -2.58623855e-003 -1.53231667e-002 -3.04330583e-003
      -7.19817588e-003 -2.25875620e-002 -2.03233529e-002
      -5.95156988e-003 -1.59096271e-002 2.34367908e-003 -6.23179181e-003
      7.86863919e-003 8.48682970e-002 6.76547736e-002 4.45593894e-003
      1.97937642e-003 -2.00748518e-002 -4.42931242e-002 -3.71594317e-002
      -9.96306818e-003 3.07471701e-003 4.09353897e-002 3.94230187e-002
      -5.68065280e-003 3.71085713e-004 -1.40554225e-002 -1.17233694e-002
      -1.91947222e-002 -1.05217667e-002 -1.95964556e-002
      -1.04917912e-002 -1.50430715e-002 -4.01204750e-002
      -2.12264676e-002 -2.78364494e-002 -2.61428654e-002
      -1.32802986e-002 -3.58951371e-003 1.19184013e-002 1.10002853e-001
      1.01492517e-001 1.28621878e-002 -1.38187073e-002 -4.33903970e-002
      -5.90153262e-002 -3.89643982e-002 -6.77491166e-003 1.03959255e-002
      6.41726702e-002 9.71817672e-002 3.33276317e-002 -6.96071750e-003
      -1.57385413e-002 -3.69409919e-002 -3.54912020e-002
      -9.41793993e-003 -1.29978852e-002 9.30003915e-003 2.66227424e-002
      8.93939566e-003 -2.75580422e-003 -1.74619409e-003 -3.52494442e-003
      -7.10518612e-003 1.97785161e-003 -3.57435993e-003 2.03122594e-003
      6.99014543e-003 -5.44173969e-003 -4.99992399e-004 1.38476649e-002
      2.38096640e-002 1.51429381e-002 1.76631298e-003 -1.23761659e-002
      -9.65092448e-004 2.25753570e-003 -4.81979270e-003 -1.21086522e-003
      8.00152891e-004 2.30883751e-002 2.95389742e-002 1.61163602e-003
      -5.75389480e-003 9.91224428e-004 9.87268612e-003 1.43956300e-003
      7.96829059e-004 -1.24788750e-003 -2.54781917e-002 -2.15385631e-002
      1.33788213e-003 1.92323979e-002 4.03487980e-002 4.26943079e-002
      8.71353038e-003 2.96162181e-002 -9.15546622e-003 -9.88883618e-003
      -1.49813537e-002 7.68575724e-003 -2.37358548e-003 4.67351172e-003
      -8.21974315e-003 -3.38202640e-002 -6.94973569e-004
      -6.98713958e-003 -3.25662643e-002 5.64278476e-003 6.20586658e-003
      -1.73775181e-002 -1.13706309e-002 -8.16381816e-003
      -7.56919675e-004 -9.70178982e-004 -2.93052066e-002
      -4.51202393e-002 -3.35014947e-002 -2.41092127e-003 1.65268909e-002
      6.25745058e-002 8.07571486e-002 3.19599845e-002 -1.63485203e-003
      -1.25080505e-002 -3.68071869e-002 -3.46406288e-002
      -4.95726243e-003 -4.40179463e-003 1.81238446e-002 3.75988074e-002
      2.18334142e-002 6.72729174e-003 -9.89691447e-003 -1.92830823e-002
      -1.35117490e-002 1.71095680e-003 -1.11243650e-002 -2.58700317e-003
      2.35460023e-003 5.28902048e-003 1.61414184e-002 9.09408648e-003
      2.67631877e-002 2.04144381e-002 2.51938892e-003 -7.78446347e-003
      6.82959144e-005 1.10557852e-002 -1.21406866e-002 9.51411668e-003
      5.07197436e-003 2.56261490e-002 2.69010030e-002 5.75766526e-003
      -3.12716141e-003 3.69349332e-003 1.62563995e-002 8.73429514e-003
      -9.10252784e-005 8.21811147e-003 2.66744085e-002 1.87995546e-002
      8.34173709e-003 -9.51948692e-004 2.22074537e-004 4.91158292e-003
      1.13637364e-002 4.09796648e-003 -3.79966735e-003 -3.98488948e-003
      -6.34370418e-003 1.02667306e-002 5.24903554e-003 6.12275442e-003
      -6.96562976e-003 -3.38281244e-002 9.79616214e-003 3.11722211e-003
      -2.97412481e-002 3.60718044e-003 2.27148794e-002 8.14072788e-003
      -3.50610178e-004 -1.92175433e-003 6.79787574e-003 -1.50953326e-003
      -4.23141569e-003 -2.02153865e-002 -1.01575758e-002 2.57862154e-002
      1.70325730e-002 1.13256508e-002 -2.10644659e-002 1.88318975e-002
      1.62282903e-002 -6.17821887e-003 -2.59427112e-002 -3.06552593e-002
      -8.75172962e-004 -2.31030211e-003 1.08380625e-002 2.79256180e-002
      1.36916311e-002 6.17750315e-003 -1.24221463e-002 -1.04177240e-002
      -3.60630220e-003 9.70334001e-003 3.50059738e-004 2.41881842e-003
      3.01017193e-003 9.14027449e-003 2.28906479e-002 -1.10739954e-002
      1.49031384e-002 2.66097616e-002 1.10085290e-002 1.79977459e-003
      2.28626956e-003 -5.89909498e-003 3.80912051e-003 8.16248357e-003
      1.00663805e-003 2.79258266e-002 2.96740271e-002 4.45713801e-003
      -1.27356173e-003 3.13718989e-003 1.64861009e-002 1.11960350e-002
      -4.69008315e-004 1.14864418e-002 2.61067711e-002 1.94452889e-002
      7.81318266e-003 -1.64362928e-003 -8.97109101e-004 3.37756635e-003
      1.13051301e-002 5.64682391e-003 9.39667225e-003 2.42974088e-002
      6.21090457e-003 2.39256863e-003 -3.03943665e-003 -3.54678370e-003
      -4.08761436e-004 2.53721443e-003 1.14951674e-002 -8.45942367e-003
      -4.10734676e-002 -1.99822383e-003 1.80976950e-002 6.51813345e-004
      -2.05517607e-003 -2.96889851e-003 -1.11155806e-003 1.03305858e-002
      1.06664654e-002 -2.19989009e-002 -1.44633267e-003 2.67572831e-002
      1.80334561e-002 1.50273740e-002 -2.73740590e-002 1.24167837e-002
      2.36446895e-002 1.06258579e-002 1.26323616e-002 1.70578305e-002
      3.85926291e-002 1.60918646e-002 2.32058931e-002 -2.61912830e-002
      -1.85512789e-002 1.35994572e-002 -1.12868557e-002 -9.12668370e-003
      1.23683037e-003 7.27891922e-003 -3.11338459e-003 1.62267673e-003
      -8.70146207e-004 5.18642226e-003 1.34159205e-002 -9.94555745e-003
      2.33699381e-002 3.46409641e-002 1.22462660e-002 1.24436046e-003
      3.63857904e-003 -6.88027497e-003 3.71508300e-004 7.08879763e-003
      2.06676382e-003 2.60641724e-002 5.95291220e-002 1.77846998e-002
      -1.05113629e-003 6.88867818e-004 -1.26062715e-002 -1.39931506e-002
      -6.10560365e-003 8.37007351e-003 1.51240304e-002 2.21197749e-003
      2.58299685e-003 -3.54341604e-003 -2.28033331e-003 2.38840329e-003
      1.31282881e-002 4.67972504e-003 7.63808936e-003 1.86246950e-002
      2.59722630e-003 5.16625633e-003 -6.32499810e-003 -6.77413587e-003
      -6.64845901e-003 -1.23693654e-003 8.83144513e-003 1.96026973e-002
      2.42555607e-002 3.90293077e-002 4.01515029e-002 -6.45418931e-003
      -1.41716339e-002 -2.06946712e-002 -1.85978077e-002
      -1.81117526e-003 -2.95331614e-004 -3.14658768e-002
      -1.12102469e-002 1.21493423e-002 3.84204206e-003 5.61755011e-003
      -2.82263290e-002 5.16848313e-003 1.40139852e-002 4.95111058e-003
      7.65251741e-003 2.51377374e-002 5.23966774e-002 1.28059732e-002
      1.06942607e-002 -4.02943678e-002 -2.34128665e-002 1.00530731e-002
      3.21697779e-002 2.26426441e-002 8.01731944e-002 1.04783751e-001
      3.03694769e-003 -5.68878576e-002 -9.86450464e-002 -8.12076852e-002
      -1.26764299e-002 -5.85369021e-003 1.07695395e-002 2.87841111e-002
      5.38898632e-003 -4.41776915e-003 6.80487021e-004 -9.03086923e-003
      -5.27870934e-003 6.94137241e-004 5.38090651e-004 2.36747172e-002
      8.10089335e-002 2.46481840e-002 -3.20936600e-003 -3.14595806e-003
      -2.17569862e-002 -1.84756964e-002 -9.86266229e-003
      -5.43076021e-004 1.37059996e-002 1.02419846e-001 9.94168147e-002
      -1.91264562e-002 -4.52925786e-002 -3.90633084e-002
      -2.05096714e-002 -8.60926975e-003 -1.43041443e-002 4.71901754e-003
      -9.39446327e-004 1.91301014e-003 -3.64034832e-003 -4.62153042e-003
      -4.40697186e-003 -4.63041291e-003 9.74806305e-003 -3.44631588e-003
      1.62206497e-002 4.53480706e-002 5.94709031e-002 -1.29603352e-002
      -1.31242527e-002 -1.97075605e-002 -1.77388676e-002
      -9.05877072e-003 -1.60523299e-002 6.78597065e-003 3.41955721e-002
      1.09701395e-001 -2.78416220e-002 -1.38757043e-002 -1.00850929e-002
      -8.07523914e-003 -2.21726410e-002 1.42446137e-003 -2.67716474e-003
      2.83410512e-002 3.40352543e-002 -3.54573433e-003 -1.73892279e-003
      -3.96836139e-002 -4.26570103e-002 8.72449527e-005 3.21864039e-002
      1.25144618e-002 8.81134719e-002 1.13027669e-001 -2.87306011e-002
      -8.43869895e-002 -1.17045000e-001 -7.20825940e-002
      -1.36452150e-002 2.31295102e-003 8.70431308e-003 7.83077329e-002
      1.24462023e-001 -3.58608738e-002 -9.49591696e-002 -7.09094256e-002
      -2.74324771e-002 -8.54388438e-003 -1.22361467e-003 8.94485228e-003
      5.40854000e-002 1.28565161e-002 -3.60114849e-003 -9.20890179e-003
      -1.58028658e-002 -1.19964145e-002 -6.13781018e-003
      -1.03200972e-003 6.45429175e-003 9.65253860e-002 1.13605492e-001
      -3.34544666e-002 -5.20280823e-002 -3.64116468e-002
      -1.97638441e-002 -7.04962667e-003 -4.03880095e-003
      -2.49079824e-003 3.72372605e-002 1.29234225e-001 -7.43135437e-002
      -6.44721165e-002 -1.82079822e-002 -7.13248365e-003
      -3.79797025e-003</_>
    <_>
      -4.97289700e-004 -5.83813875e-004 4.29372909e-003 4.16039350e-003
      -2.61157248e-002 2.04097296e-006 2.08311612e-004 8.80814259e-005
      -2.56515603e-004 -2.13594106e-003 -1.26915018e-003 3.54226790e-002
      3.11084054e-002 -5.48036098e-002 -9.24062799e-004 -2.77130603e-004
      -5.37568529e-004 -1.92353560e-003 3.43252432e-005 4.38063685e-003
      3.44362892e-002 -2.75595952e-003 -5.06370850e-002 6.82491926e-004
      -5.79718908e-004 -2.68769345e-005 -1.98205118e-003 2.60399887e-003
      4.01170598e-003 2.10148506e-002 1.48449689e-002 -1.59680974e-002
      -3.88329383e-003 9.44060957e-005 -1.37663446e-004 -1.05477724e-004
      2.20991969e-002 1.81813147e-002 5.85118569e-002 5.97605482e-003
      -5.68670444e-002 -2.58819871e-002 4.39795898e-003 1.23096593e-002
      1.70939583e-002 2.04210766e-002 1.68234762e-002 4.83640395e-002
      -3.34928855e-002 -6.37545511e-002 -2.68971757e-003 7.69472169e-003
      1.28054125e-002 1.41995130e-002 1.42814999e-003 1.95787405e-003
      1.03956256e-002 2.61832885e-002 2.01318208e-002 3.48436879e-003
      8.20330577e-004 -3.13523342e-004 2.78276391e-004 1.18544158e-002
      1.95423998e-002 2.59867907e-002 3.65436822e-002 -2.30611153e-002
      -1.93801671e-002 -6.72336000e-007 3.93734919e-003 9.18923970e-003
      1.23202307e-002 1.20299086e-002 2.30103750e-002 -2.42833663e-002
      -5.53708896e-002 -1.25702471e-002 -3.48047959e-003 3.42896814e-003
      1.00318398e-002 -2.47314805e-003 -1.02427253e-003 3.99883799e-002
      3.18054669e-002 -4.35635112e-002 -9.60143458e-004 -9.72900016e-004
      -9.78637487e-004 -2.26799562e-003 1.10048661e-003 1.04592079e-002
      4.94794101e-002 -1.16847120e-002 -7.97880813e-002 1.40837394e-003
      -9.68080654e-004 1.01702660e-003 -2.15429510e-003 3.54562397e-003
      1.17393760e-002 2.26319153e-002 -3.77074140e-003 -2.04761121e-002
      3.59073631e-003 2.02288968e-003 5.32887364e-003 2.11754814e-003
      2.69194040e-002 1.91889033e-002 5.47490381e-002 8.98106396e-003
      -6.77432641e-002 -2.73050796e-002 7.90990796e-003 1.75870713e-002
      2.26042774e-002 2.53258701e-002 2.61762608e-002 5.25430702e-002
      -3.72252911e-002 -6.09108917e-002 5.41151222e-003 5.59928827e-003
      2.24506203e-002 2.28185691e-002 3.42394672e-002 3.14077921e-002
      2.84986570e-002 -1.57833542e-003 -1.25609133e-002 1.02507807e-002
      1.86554193e-002 1.91622805e-002 2.47036107e-002 1.58896949e-002
      2.37040240e-002 2.82266941e-002 1.77112278e-002 -4.20028493e-002
      -2.59738136e-002 2.78731488e-004 6.42780075e-003 1.43308872e-002
      2.24144328e-002 1.92654803e-002 2.58429386e-002 -4.05498855e-002
      -7.16276839e-002 -1.43609876e-002 -8.94500967e-003 7.76519394e-003
      1.92391239e-002 2.53449399e-002 2.06562672e-002 2.48224642e-002
      2.14037485e-003 2.96564776e-005 3.51520226e-004 1.24898637e-002
      1.06871016e-002 9.73108690e-003 3.46835208e-004 1.04005784e-002
      3.59470323e-002 -3.74195613e-002 -9.53628495e-002 -3.30629386e-003
      -4.46037017e-003 2.13412364e-004 -2.61879549e-003 5.97385876e-003
      1.97464023e-002 2.53746547e-002 -7.17088999e-003 -2.91274730e-002
      3.05782794e-003 2.45896657e-003 1.00529939e-002 3.26082739e-003
      7.51720415e-003 8.96719564e-003 2.29014666e-003 -1.67468633e-003
      -6.35474105e-004 2.31466678e-004 1.45066101e-002 1.18243964e-002
      4.81933914e-003 2.57951431e-002 1.97456107e-002 3.12256068e-002
      -6.69636950e-002 -7.23205283e-002 -6.99621101e-004
      -6.28820201e-003 1.38426246e-002 2.15266533e-002 4.28921543e-002
      2.92671490e-002 2.19209548e-002 -1.18530532e-002 -3.36286426e-002
      1.17649063e-002 1.45588638e-002 2.15196703e-002 3.27274390e-002
      4.28530909e-002 2.08943561e-002 1.37100124e-003 -4.64367447e-003
      5.30348858e-003 1.13790287e-002 1.43806133e-002 2.41920743e-002
      4.50540222e-002 2.77556106e-002 1.00893928e-002 1.93779487e-002
      -4.17954698e-002 -7.26658329e-002 -1.57938451e-002
      -8.54280405e-003 -2.67884368e-003 2.07999907e-002 3.09362821e-002
      2.51924545e-002 1.76044311e-002 -3.40958126e-003 -1.94039138e-003
      -3.73897201e-004 -1.67453766e-003 7.98461901e-004 -8.06226628e-004
      2.71033831e-002 1.89241264e-002 -2.52569182e-004 -1.18024545e-002
      -5.05525945e-003 7.67211895e-003 1.32001163e-002 1.89368539e-002
      2.87234224e-003 4.49448172e-003 1.22086452e-002 1.30948676e-002
      -2.30485313e-002 -4.41133119e-002 -8.35848041e-003
      -1.61262986e-003 7.71917682e-003 2.14555161e-003 8.08143895e-003
      7.65484711e-003 -1.13390246e-003 -9.29384865e-003 -2.89139431e-002
      -1.41748702e-002 8.44183844e-003 1.42479585e-002 6.47312077e-003
      3.86488042e-004 3.20149920e-005 -2.31712242e-003 -5.50268311e-003
      -1.21551538e-002 -5.91092138e-003 1.27278613e-002 1.03108641e-002
      5.69757074e-003 3.48418728e-002 2.51238216e-002 5.52051142e-003
      -1.69104524e-002 -3.56683135e-002 -1.44065013e-002
      -1.51462431e-004 1.16050104e-002 1.49878468e-002 4.05941047e-002
      2.04658695e-002 -2.71898136e-003 -1.30909951e-002 -3.83967943e-002
      -1.46338465e-002 -1.93583278e-003 1.87643543e-002 3.24246995e-002
      2.80502308e-002 3.40529419e-002 3.89641547e-003 -2.27951165e-002
      -4.75018919e-002 -1.01505844e-002 8.24434496e-003 2.33954638e-002
      2.67428104e-002 1.46719432e-002 1.36606656e-002 1.36825535e-002
      -6.99240388e-003 -1.59526169e-002 -9.84887406e-003
      -2.89878203e-003 -8.66417680e-003 -1.63474269e-002 1.50141129e-002
      3.99833173e-003 -7.46906921e-003 -2.06986796e-002 -1.94748919e-002
      3.45974672e-003 8.49481672e-003 7.50190672e-003 -1.01211322e-002
      9.36150830e-003 -3.16026970e-003 -2.18498465e-002 -3.16453353e-002
      -2.05457918e-002 -4.07983363e-003 1.14550791e-003 5.47115132e-003
      -2.31827333e-004 6.00405270e-003 4.87671793e-003 -3.70777434e-006
      -4.18118946e-003 -2.18625553e-002 -1.35504641e-002 7.54257385e-003
      6.75886637e-003 5.31815784e-003 1.17201486e-003 1.61367701e-003
      1.42867165e-003 -6.45163760e-004 -1.61048863e-002 -1.35540375e-002
      1.53607326e-002 1.06639573e-002 7.77521729e-003 -1.04888610e-003
      3.72549868e-003 1.65075005e-003 -7.58285169e-003 -1.85458455e-002
      -1.22088622e-002 1.81160234e-002 1.59744620e-002 3.92729230e-003
      3.01173571e-002 1.75648201e-002 9.65519808e-003 -5.95851615e-003
      -3.09737623e-002 -1.51197137e-002 -3.14329867e-003 1.77417863e-002
      3.68248820e-002 3.26361395e-002 4.59258966e-002 1.34558352e-002
      -1.86645389e-002 -4.20207754e-002 -1.81007423e-002 1.70504637e-002
      2.19036341e-002 2.93435249e-002 1.61018409e-002 2.67040897e-002
      -4.80760867e-003 -3.09716221e-002 -6.38825297e-002
      -6.12965738e-003 1.93359759e-002 8.78194161e-003 2.17377059e-002
      9.11492389e-003 9.90357343e-003 7.62011064e-003 -7.80835282e-003
      -1.13513805e-002 2.77901907e-003 4.86921566e-003 1.04873823e-002
      -4.83666128e-003 1.81232393e-002 1.91008858e-003 -2.09603738e-002
      -3.29141989e-002 -1.92155205e-002 -6.36421610e-003
      -1.92083418e-004 9.26163804e-004 4.69716312e-003 -1.61491730e-003
      -1.19129485e-002 -3.78229581e-002 -4.12796214e-002
      -2.09899247e-002 -5.83476434e-003 6.95076655e-004 -3.06771905e-003
      6.30369456e-003 4.31210850e-004 1.54940679e-003 2.18417263e-003
      1.15693605e-003 -1.17786517e-002 -1.02702705e-002 1.21817915e-002
      6.68624369e-003 5.03466045e-003 -8.37719708e-004 8.24327022e-003
      2.26326031e-003 -8.55807867e-003 -2.53303312e-002 -1.20072188e-002
      2.62899287e-002 1.86220296e-002 3.55924061e-003 3.97517858e-003
      1.01839025e-002 -3.69990338e-003 -2.03557089e-002 -2.04258468e-002
      3.22743692e-002 4.29192446e-002 7.62921711e-003 1.80125423e-003
      2.71050148e-002 5.25331609e-002 2.17622612e-002 -9.28241760e-003
      -2.91749053e-002 -1.52550517e-002 1.39935194e-002 1.71835106e-002
      2.30230726e-002 2.23174337e-002 3.18969563e-002 -5.05822245e-003
      -2.55997926e-002 -5.33915982e-002 -1.62744578e-002 1.23842731e-002
      1.05492724e-002 2.74642296e-002 2.91204192e-002 1.16092237e-002
      -4.10062410e-002 -3.34566422e-002 -3.95714492e-002 2.64853202e-002
      3.91118377e-002 1.66620314e-002 2.64982749e-002 8.55971128e-003
      6.58783317e-003 -1.28910663e-002 -1.83943789e-002 -1.50012746e-002
      -6.09846972e-003 -1.28355203e-003 -4.02370235e-003 5.06518502e-003
      5.16310334e-003 -1.03259087e-002 -3.56179103e-002 -3.38469259e-002
      -2.04048585e-002 -7.36079132e-003 1.12759008e-003 1.72965101e-003
      3.64777097e-003 -4.55629406e-003 -2.12283432e-002 -3.30229141e-002
      -1.17380563e-002 -7.57504581e-003 1.38109541e-002 1.91261191e-002
      -4.23648715e-004 1.58959273e-002 -1.18114636e-003 4.14338522e-003
      -9.95825161e-004 -9.47303604e-003 -2.82027498e-002
      -9.85757634e-003 1.29156178e-002 5.09107299e-003 -4.22207930e-004
      2.82544922e-003 7.20310444e-003 -5.13181509e-003 -1.94511693e-002
      -3.16879414e-002 3.89965698e-002 3.81524414e-002 3.37717077e-003
      9.76894167e-004 -1.93833385e-003 -1.29109400e-003 -6.42672507e-003
      -6.13182224e-003 1.90485409e-003 7.19865188e-002 1.19832484e-002
      3.58417688e-004 -9.42296640e-004 2.35483963e-002 2.83089522e-002
      -2.27652583e-003 -2.70611085e-002 -5.27425185e-002
      -2.17079762e-002 1.40964352e-002 7.70848943e-003 1.97564606e-002
      2.27612685e-002 5.26969926e-003 -4.45421785e-002 -3.38851921e-002
      -3.15668210e-002 3.99988592e-002 3.66524979e-002 1.63293332e-002
      2.17807814e-002 -1.76136997e-002 -3.11685484e-002 -4.75196950e-002
      -1.27997054e-002 -6.52515155e-004 6.12108819e-002 2.24461686e-002
      2.37957900e-003 -7.11389212e-003 -8.77310708e-003 -1.17721763e-002
      -2.90808976e-002 -2.12481432e-002 -1.74926929e-002
      -8.06861557e-003 -1.92183186e-004 -1.43144839e-002
      -1.10119302e-002 -1.30649144e-002 -2.11841185e-002
      -3.13076153e-002 -5.85417589e-003 -1.54801430e-002 1.89303849e-002
      1.82316806e-002 -1.30423224e-002 -6.45465404e-003 -1.39681641e-002
      -2.51970403e-002 -1.97845418e-002 5.70665533e-003 1.02923717e-002
      4.91641946e-002 2.31241575e-003 -1.54572828e-002 -1.23927128e-002
      1.09340774e-003 2.04395922e-003 9.17293224e-003 9.75034386e-003
      -1.14992801e-002 -1.38427271e-003 -3.84204759e-004
      -3.57396639e-004 1.42742738e-005 1.00917267e-002 1.26524726e-002
      2.28434484e-002 2.30825506e-002 -4.55754735e-002 -2.52274964e-002
      -1.98198250e-003 3.34336050e-003 7.56208738e-003 6.95766089e-003
      7.35158101e-003 1.48875490e-002 -3.86102535e-002 -6.46421313e-002
      -1.60811599e-002 -5.95162855e-003 3.25244968e-003 3.63926846e-003
      -2.12967861e-003 3.92720429e-003 2.48193983e-002 6.15221506e-004
      2.21476497e-004 3.94536462e-003 1.61565524e-002 1.05504761e-003
      -2.41296948e-003 1.42982295e-002 3.90476547e-002 7.35766888e-002
      2.66970564e-002 -1.79770552e-002 -1.61210410e-002 6.51132362e-003
      9.08625778e-003 1.29292272e-002 4.96294466e-004 1.37262819e-002
      4.09210883e-002 -2.97301710e-002 -4.63729352e-002 -2.07062662e-002
      -2.17366572e-002 -1.24667445e-002 9.84089356e-003 -1.39866374e-004
      1.22556428e-003 1.14959385e-002 1.12666208e-002 1.60628892e-002
      2.95899506e-003 3.86168086e-003 1.23772945e-003 -1.90433420e-004
      4.18774411e-003 8.57292395e-003 3.28528099e-002 9.10704862e-003
      -1.13135180e-003 1.86155550e-003 2.18822025e-002 1.21446922e-002
      8.75241403e-003 -1.18426955e-003 -2.54822226e-004 1.59402676e-002
      -3.68618686e-003 -1.12203211e-002 -2.77790171e-003 3.53145227e-003
      2.42007943e-003 7.95494299e-003 1.35980649e-002 1.69877876e-002
      2.13303957e-002 1.80238616e-002 -4.73258719e-002 -2.56671160e-002
      -1.98800626e-004 5.86653827e-003 1.24938833e-002 1.73595436e-002
      1.49211623e-002 2.19788738e-002 -4.79575656e-002 -7.05902427e-002
      -1.32694524e-002 -4.08492796e-003 9.71156545e-003 1.20809721e-002
      1.96045265e-002 1.76237840e-002 1.36165433e-002 7.63048942e-004
      -1.56420120e-003 3.82676721e-004 1.19555118e-002 1.28722163e-002
      7.49580143e-003 2.13991608e-002 5.49109541e-002 8.20342079e-002
      3.85974837e-003 -4.35185283e-002 -2.59194653e-002 3.59684974e-003
      1.53991040e-002 2.06329823e-002 1.69702526e-002 2.16372125e-002
      4.53209877e-002 -2.09508762e-002 -3.53188552e-002 -1.37588214e-002
      -1.94784235e-002 -1.24884015e-002 1.96192116e-002 1.64135452e-002
      1.50462771e-002 2.07391307e-002 5.32272225e-003 2.81533273e-003
      -2.71917263e-004 -8.26738868e-003 -1.31610390e-002
      -5.72844129e-003 6.17621979e-003 1.04795257e-002 3.63825262e-002
      3.96503182e-003 -1.77122485e-002 2.77004816e-004 2.48619094e-002
      1.83303263e-002 1.13925505e-002 1.56516777e-004 6.95206982e-004
      2.20546015e-002 -1.83874054e-003 -8.53530318e-003 -8.37512431e-004
      4.09341604e-003 4.55494178e-003 1.26153566e-002 1.00928522e-003
      -4.14498430e-003 -4.62092925e-003 -1.91886653e-003 3.62197217e-003
      5.00859367e-003 5.58429677e-003 -5.03896782e-003 1.62966945e-003
      1.92430727e-002 1.13256453e-002 1.66214723e-002 -4.88488898e-002
      -6.34692535e-002 -5.79652656e-003 3.35574755e-003 7.99367856e-003
      1.71321332e-002 3.68865915e-002 2.79570948e-002 2.10102182e-002
      4.58505878e-004 -2.36660521e-003 2.82905274e-003 1.40904551e-002
      1.57624930e-002 1.68856606e-002 3.18743214e-002 2.30316725e-002
      1.67151056e-002 -2.56051449e-003 2.44843867e-003 7.77703943e-003
      7.92772695e-003 1.31892506e-002 2.35663559e-002 1.22274980e-002
      1.39102135e-002 4.09284048e-002 -1.80466417e-002 -2.55567431e-002
      -1.05350567e-002 -1.70671418e-002 -1.40857138e-002 1.45423952e-002
      1.40783121e-003 1.88528486e-002 1.31295519e-002 8.76666047e-004
      1.32133055e-003 6.10144809e-003 -1.04524083e-002 -1.48774348e-002
      -1.74290091e-002 1.87460054e-002 1.07179619e-002 -1.91043701e-003
      -1.45858703e-002 1.23524908e-002 1.16129192e-002 1.37925697e-002
      1.31346080e-002 -8.17015243e-004 -3.61591927e-003 -2.43250234e-003
      1.40376845e-002 -2.20627361e-003 -5.93606674e-004 2.07221648e-003
      7.38857605e-004 -1.58307492e-003 6.59544161e-003 -1.38908643e-002
      -8.80476460e-003 -1.21059185e-002 -8.27959273e-003 5.67106530e-003
      7.11516757e-003 3.12459050e-003 -8.90223030e-003 -6.70725387e-003
      -1.48758590e-002 -1.64256692e-002 -2.23746784e-002
      -1.86832789e-002 7.05463951e-003 4.51562664e-004 -2.60262238e-003
      8.42841621e-003 1.49514381e-004 2.93353871e-002 2.43545324e-002
      1.84337348e-002 1.67849404e-003 2.13402044e-003 2.25632987e-003
      9.59457643e-003 1.25090275e-002 1.08734313e-002 3.78219038e-002
      3.11890263e-002 2.27397475e-002 -2.77706946e-004 5.26159629e-003
      1.15359966e-002 1.19956890e-002 1.78760644e-002 2.85851713e-002
      2.17735786e-002 3.41617465e-002 2.22768281e-002 -5.95351076e-003
      5.62493177e-003 3.84247722e-003 5.68313897e-003 1.35552539e-002
      2.49367058e-002 1.01616951e-002 1.57647207e-002 1.68115571e-002
      8.93210701e-004 4.32245317e-004 3.37957893e-003 -4.47617751e-003
      -1.30865974e-002 -3.33216861e-002 6.12855470e-003 7.69444741e-003
      -8.54900479e-003 -1.21211410e-002 1.21021029e-002 1.01443101e-002
      1.79720186e-002 1.30351195e-002 -1.26172947e-002 4.20377078e-003
      -4.89182631e-003 -3.19366083e-002 -1.97958592e-002 2.14243564e-003
      1.76565628e-002 1.42118232e-002 1.74732842e-002 9.91736539e-003
      -2.41355523e-002 -8.62239208e-003 -2.41788360e-003
      -3.90908128e-004 4.02751938e-003 4.22360981e-003 -6.81419973e-004
      -8.87440145e-003 -2.19658427e-002 -2.91181337e-002
      -1.90140177e-002 -1.69197265e-002 -2.01107338e-002 1.68676693e-002
      1.09073741e-003 -2.48174602e-003 1.04242358e-002 -1.50894197e-002
      -1.86271407e-002 -3.89087084e-003 -1.56196933e-002
      -2.86511704e-002 6.15052041e-003 1.89757557e-003 -3.98893724e-004
      1.34071009e-002 -1.68281458e-002 2.50682682e-002 2.70098839e-002
      2.19326895e-002 4.29009000e-004 3.34899221e-003 6.90288842e-003
      7.78433913e-003 1.26982965e-002 2.23669447e-002 2.88313832e-002
      4.04769406e-002 2.44487505e-002 -4.92264610e-003 5.39030833e-003
      3.85392387e-003 7.65765924e-003 1.56770013e-002 3.00253890e-002
      1.84404161e-002 2.45924201e-002 -1.68252329e-004 -1.57576669e-002
      5.16885309e-004 5.58053702e-003 1.41210780e-002 1.31012611e-002
      2.05422696e-002 5.45372441e-003 4.31334227e-003 1.05718605e-003
      -6.82502566e-003 1.27771301e-002 5.98154776e-003 1.55978752e-002
      2.63561737e-002 -5.61136939e-003 8.43950920e-003 -1.16481318e-003
      -2.59062927e-002 -1.45956650e-002 7.41404248e-003 1.55116143e-002
      1.46433571e-002 1.00410720e-002 1.88153014e-002 -5.30728605e-003
      -1.13620702e-002 -1.60065349e-002 -2.02748179e-002 4.79385286e-004
      1.72664877e-002 1.18418084e-002 1.90009680e-002 1.04106134e-002
      -2.43903026e-002 -1.05423518e-002 -2.76424037e-003
      -8.70896969e-003 1.33035155e-002 -2.90975859e-003 -5.55213867e-003
      1.02337953e-002 -1.76823400e-002 -1.62712187e-002 2.76252790e-003
      -1.12560997e-002 -2.53631473e-002 6.67439122e-003 -6.08149450e-004
      -3.60949058e-003 1.51501596e-002 -1.68441776e-002 -2.27116700e-002
      5.55158872e-003 3.53353634e-003 -2.20063813e-002 -1.24490503e-002
      5.03378129e-003 1.81881012e-003 1.05387662e-002 -1.57558359e-002
      1.92041136e-002 3.03473119e-002 1.47978310e-002 -3.99082154e-003
      5.59127133e-004 1.18869427e-003 3.66033171e-003 8.27509351e-003
      1.79686286e-002 1.73715055e-002 1.77388992e-002 -6.11578161e-003
      -1.68530177e-002 -9.55443480e-004 4.96633258e-003 1.71388797e-002
      1.43961823e-002 2.68807970e-002 1.09568322e-002 -4.19578464e-005
      -2.19834894e-002 -5.31009445e-003 7.35997967e-003 2.76709162e-002
      2.45264787e-002 1.09877894e-002 1.82221606e-002 9.05308686e-003
      -4.16949717e-003 -2.34598089e-002 -1.73877478e-002 7.56034907e-003
      3.36920796e-003 7.08640460e-003 7.44457496e-003 1.52559979e-002
      1.91212958e-003 -1.08196940e-002 -7.29851332e-003 -1.59461033e-002
      -5.65156480e-003 8.46468098e-003 8.24429467e-003 1.87793151e-002
      1.26633151e-002 -2.52564694e-003 -6.78745564e-003 1.04352972e-002
      3.26162465e-002 -4.67067352e-003 1.47118978e-002 3.90254185e-002
      1.94651168e-002 4.15836368e-003 -1.80143788e-002 4.28789714e-003
      1.13744661e-003 -2.08923221e-002 -2.89055309e-003 -3.40856751e-003
      -6.18716422e-003 7.01862387e-003 -2.23852899e-002 -2.42999271e-002
      -1.35998393e-003 1.22956419e-002 -1.74218826e-002 -3.12218908e-002
      7.42600707e-004 1.89898338e-003 4.50795610e-003 -1.77400503e-002
      -3.36447805e-002 1.01160113e-004 4.80681285e-002 1.94055177e-002
      -3.01734861e-002 -1.14490045e-003 1.58860870e-002 4.24322020e-003
      -2.09593307e-002 8.99423286e-003 7.18923658e-003 -8.47383775e-003
      -1.37488507e-002 -2.91919708e-003 1.27385696e-003 8.06322973e-003
      6.31819107e-003 1.19378408e-002 7.09223282e-003 -5.60939452e-003
      -2.36160085e-002 -3.87744932e-003 6.35062344e-003 2.94152293e-002
      2.18575336e-002 8.52701627e-003 1.22489436e-002 -1.42608548e-003
      -8.10470618e-003 -8.58524814e-003 1.00077949e-002 2.23492868e-002
      5.58053292e-002 7.76978023e-003 1.44075940e-003 6.66126725e-004
      -9.36672837e-003 -2.17159968e-002 -1.82584058e-002
      -2.29397174e-002 -1.36386752e-002 -1.35081937e-003 2.03237566e-003
      6.22454891e-003 3.42714600e-003 -1.81522481e-002 -1.51282018e-002
      5.73703786e-003 3.06367297e-002 -5.69905154e-003 2.50160098e-002
      4.27782647e-002 1.00377798e-002 -1.68365682e-003 -1.79795045e-002
      -1.43822255e-002 2.62492113e-002 2.55835019e-002 3.70358787e-002
      3.61453742e-002 2.77204178e-002 -2.13102065e-002 -1.71129834e-002
      -3.05452123e-002 -6.90105092e-003 1.39980158e-002 -1.38323931e-002
      -2.83239800e-002 -1.98861538e-003 -2.10194747e-004 2.74097407e-003
      -1.88840032e-002 -3.56358700e-002 -6.88356115e-003 4.20428440e-002
      2.20495742e-002 -3.10103651e-002 4.14624298e-003 1.43128745e-002
      -1.00335656e-002 -2.48154067e-002 -3.74955051e-002
      -1.34537844e-002 1.52284224e-002 3.72505784e-002 8.68219789e-003
      2.67986339e-002 9.13713418e-004 -2.00953409e-002 -3.13724168e-002
      -3.24524078e-003 1.42861344e-003 1.25603415e-002 -1.20739443e-002
      -2.34911330e-002 -1.23539090e-003 5.23629924e-003 7.99784146e-004
      -3.10147693e-003 1.39869889e-003 1.18475584e-002 3.56583968e-002
      -9.41794598e-004 -1.89813953e-002 -4.00692690e-003 1.47606544e-002
      6.42465288e-003 5.73560502e-003 -1.50257554e-002 -7.62510998e-003
      1.73126981e-002 -2.22177263e-002 -3.64509597e-002 -1.06198480e-002
      -8.60704575e-003 -6.19214633e-003 -7.84487370e-003
      -3.52563895e-003 1.79096218e-003 2.15590689e-002 5.35193086e-003
      -1.25892097e-002 3.37226689e-002 4.93867672e-004 4.19217814e-003
      -4.09755949e-003 8.97878595e-003 1.18907513e-002 3.56513448e-002
      9.82177537e-003 -2.06956007e-002 1.86474732e-004 2.43603606e-002
      1.94986798e-002 1.11985635e-002 -1.83742102e-002 -2.86547351e-003
      1.16793578e-002 -9.91361775e-003 -2.67057922e-002 -1.44226188e-002
      2.74521345e-003 9.20006074e-003 1.23842563e-002 -7.75782764e-003
      -3.33948480e-003 -2.44787638e-003 1.94754475e-003 1.44601492e-002
      4.08348255e-002 9.22908727e-003 2.13239249e-003 -1.08567337e-002
      -1.18547920e-002 4.69692098e-003 -8.83272951e-005 4.29311069e-003
      1.45968329e-002 1.17617073e-002 -1.50244478e-002 1.36761402e-003
      -3.35750636e-003 -1.14683099e-002 1.18134255e-002 1.61801220e-003
      -3.82768078e-004 -4.89231385e-003 3.10435286e-003 -9.83992708e-004
      -3.34761711e-003 -1.01122521e-002 2.09072372e-003 1.34719508e-002
      3.51675376e-002 -1.41659810e-003 -2.81472187e-002 -5.78959705e-003
      1.36434631e-002 7.28570530e-003 5.57635818e-003 -1.55572016e-002
      -4.65727132e-003 1.91754606e-002 -1.81347802e-002 -3.59479003e-002
      -1.25402864e-002 -1.26934042e-002 -1.39915682e-002
      -1.38470279e-002 -1.13314949e-002 -1.00645535e-002 5.90158021e-003
      -3.30052781e-003 -5.13502257e-003 -1.45984511e-003
      -7.84732495e-003 -2.25733183e-002 -2.84699183e-002 1.54667972e-002
      1.50383431e-002 3.34933400e-002 9.14497022e-003 -3.35270241e-002
      2.59424583e-003 2.77676303e-002 2.68083792e-002 2.08711959e-002
      -1.13538112e-002 -4.62984353e-005 1.06811635e-002 -1.91593531e-003
      -2.33722590e-002 -1.84895378e-002 -3.91341047e-003 1.67343449e-002
      7.33656017e-003 -1.83337498e-002 1.63149170e-003 -2.24198634e-003
      -1.57311577e-002 -1.88571941e-002 -5.65222325e-003 1.54544841e-002
      1.74201038e-002 1.11474777e-002 -8.95994250e-004 8.22761375e-003
      1.32186210e-003 5.93830971e-003 1.25953928e-002 6.68537244e-003
      -1.64348464e-002 -4.47525969e-003 -2.86053447e-003
      -1.11903166e-002 1.25726331e-002 3.85772157e-003 5.66656563e-005
      -3.48690292e-003 4.59672464e-003 -2.84138392e-003 -7.61472154e-003
      -1.26754185e-002 -1.75151899e-002 5.08731650e-003 -4.37060930e-003
      -4.66999691e-003 -8.19212385e-003 -6.00317586e-003 4.82455175e-003
      1.53077987e-003 3.58510530e-003 -1.55601604e-002 -9.91594233e-003
      1.71874352e-002 -9.28477384e-003 -1.43558141e-002 -3.41584487e-003
      -1.07717821e-002 -1.05984630e-002 -1.16945626e-002
      -1.21056437e-002 -9.51438677e-003 5.55559387e-003 -2.50170450e-003
      -2.12739268e-003 -6.57967117e-004 -9.46292467e-003
      -2.46332940e-002 -3.25685404e-002 -1.06735397e-002
      -1.41335232e-002 -8.93836934e-003 -6.52658753e-003 8.88018962e-003
      -4.30851476e-003 -6.51507126e-003 -1.86629116e-003
      -2.57964116e-002 -1.24913305e-002 1.35184487e-003 9.20693576e-003
      8.89404444e-004 4.45919926e-004 2.82413414e-004 1.06565403e-002
      2.26084199e-002 1.37123801e-002 -1.14621148e-002 4.44243802e-003
      -6.83149742e-003 -1.84039325e-002 -1.23751238e-002
      -4.43171477e-003 1.62186138e-002 3.12154777e-002 1.16262073e-002
      -2.74476502e-003 1.72252278e-003 -6.80980133e-003 -2.44642496e-002
      8.36153235e-003 1.68356241e-003 1.21312933e-002 2.65156887e-002
      1.79326180e-002 -1.62402913e-002 1.20908916e-002 3.05115478e-003
      -4.49754007e-005 -8.80514097e-004 3.83317983e-003 7.41002662e-003
      1.50227326e-003 -5.11317141e-003 -8.24007671e-003 9.85665992e-003
      -6.88002724e-003 -8.67368374e-003 -8.01011641e-003
      -4.96655283e-003 1.15965726e-002 6.77517336e-003 1.97445080e-002
      2.07487550e-002 9.74583905e-003 9.45690437e-004 -2.37758178e-002
      -1.77371781e-003 9.83961509e-005 1.62630100e-002 8.69708881e-003
      7.72787025e-003 -5.34542091e-003 -6.57085655e-003 2.04585982e-003
      -2.58583669e-003 -8.53373902e-004 -2.49991746e-004
      -4.04109433e-003 -1.39287487e-002 -3.05697098e-002
      -1.52347535e-002 -1.41830137e-002 -9.56189074e-003
      -6.13393262e-003 1.36421695e-002 -2.57713650e-003 -5.86637622e-003
      1.99378491e-003 -2.51701847e-002 -9.67878010e-003 -8.26835539e-003
      -1.04445526e-002 -1.85328051e-002 7.91335665e-003 1.04370201e-003
      -3.27209738e-004 1.68523798e-003 -1.54537996e-002 -5.46462741e-003
      1.10323885e-002 1.34295807e-003 -1.03939250e-002 -1.43882856e-002
      9.17087425e-004 1.39949620e-002 2.48818956e-002 1.25702554e-002
      -2.37170095e-003 -1.06429576e-003 -8.13718699e-003
      -2.05785874e-002 1.17975622e-002 7.84619898e-003 8.75464268e-003
      2.58060116e-002 1.38327498e-002 2.45218407e-002 1.98614355e-002
      5.36688836e-003 -3.29013057e-002 -8.45256075e-003 3.32452403e-003
      -9.14552016e-004 1.74594223e-002 1.02888225e-002 5.31852897e-003
      1.78436004e-002 2.01803329e-003 -4.12642956e-003 -6.16416475e-003
      -3.44791473e-003 9.13493615e-003 4.53744922e-003 7.82447495e-003
      2.89864670e-002 1.41716497e-002 1.10524017e-002 -2.10034791e-002
      4.53712477e-004 2.06178590e-003 1.65808629e-002 1.11527061e-002
      1.30466325e-002 4.03268039e-002 1.59283187e-002 -6.58074673e-003
      -2.55263038e-002 -1.13487011e-004 2.92820809e-003 5.85354120e-003
      1.43201761e-002 1.39106670e-002 -8.30251724e-003 -9.53887124e-003
      -8.43879022e-003 -4.95246565e-003 1.04291784e-002 -1.15449750e-003
      -3.30425124e-003 6.45680865e-003 -2.32619196e-002 -1.14480266e-002
      -5.22019202e-003 -6.72893226e-003 -1.98870115e-002 8.31552502e-003
      3.16105341e-003 8.45287577e-004 -7.79061718e-003 -1.32333077e-002
      -8.83912947e-003 2.41580128e-004 6.18270272e-003 -1.82564296e-002
      -3.98756657e-003 2.70922156e-003 -1.07860228e-003 -6.38601184e-003
      -1.90903228e-002 4.80514049e-004 8.63673724e-003 -8.19617137e-003
      -1.93306040e-002 1.37742618e-002 4.75702994e-003 8.34904425e-003
      2.55603846e-002 1.43636707e-002 2.01790109e-002 2.53691711e-002
      1.10933967e-002 -2.65895631e-002 -1.17409993e-002 6.29075198e-003
      5.48141194e-004 1.44773498e-002 1.22334454e-002 1.24665815e-002
      2.40612868e-002 2.86177490e-002 -1.74558423e-002 -4.89177443e-002
      6.74590236e-003 3.28948814e-003 1.11552365e-002 1.25129959e-002
      2.37819776e-002 1.76674649e-002 9.71797854e-003 -1.48130460e-002
      1.01157441e-003 2.16660695e-003 1.53047014e-002 1.37686944e-002
      4.47655190e-003 4.52078842e-002 1.93496644e-002 -9.91472974e-004
      -2.31122635e-002 -1.84476539e-005 3.20537039e-003 7.03918748e-003
      1.29824644e-002 2.59943046e-002 3.10609564e-002 2.10901964e-002
      1.31082563e-002 -9.22810473e-003 -3.02189980e-002 1.17041788e-003
      7.09286425e-004 6.87873783e-003 4.07765321e-002 -3.34122381e-003
      -6.90267305e-004 -4.34631685e-004 -1.40222581e-002 3.72808031e-003
      2.47161114e-003 8.61917972e-004 -1.96686690e-003 -2.03110725e-002
      -1.43293040e-002 3.50552099e-003 1.32986307e-002 -1.36855152e-002
      -1.26137175e-002 1.52467634e-003 -8.39298373e-005 -5.17340936e-003
      -1.94775462e-002 -1.76504701e-002 4.68083378e-003 4.21329923e-002
      2.03615725e-002 -1.46418279e-002 1.74602924e-003 1.31842578e-002
      -2.23583425e-003 -2.43595354e-002 2.32427176e-002 3.10754664e-002
      2.07153312e-003 -2.77640373e-002 -8.46009329e-003 5.03893709e-003
      -5.51283173e-003 1.45221110e-002 4.10189899e-003 1.19028250e-002
      3.13447788e-002 2.73146816e-002 -8.35696887e-003 -5.11772819e-002
      4.39387839e-003 5.96631644e-003 1.12217711e-002 9.92917921e-003
      1.16702882e-004 3.56600434e-002 7.60934800e-002 3.16844955e-002
      -4.17487919e-002 4.45789425e-003 1.56159289e-002 -5.89153089e-004
      -1.62227713e-002 3.40159051e-002 1.13175083e-002 -3.08184564e-004
      -1.54796420e-002 -2.41846734e-004 2.21639173e-003 3.31938057e-003
      1.63370818e-002 2.32135914e-002 3.72121334e-002 2.37068795e-002
      1.88075919e-002 -8.40331707e-003 -4.49846275e-002 1.84170599e-003
      1.46858545e-003 7.76213175e-003 4.31872495e-002 3.36829983e-002
      3.08577213e-002 3.30501385e-002 2.98862960e-002 -4.90479432e-002
      6.57182653e-004 4.97011759e-004 4.20054654e-004 1.94258876e-002
      -8.99562519e-003 -3.43730673e-004 1.26843536e-002 -1.06476014e-002
      -1.37065295e-002 -7.45378493e-004 5.01582574e-004 -2.62003834e-003
      -5.45764761e-003 -2.11501960e-002 -2.07336526e-003 3.59762385e-002
      1.98240560e-002 -1.33014088e-002 7.13123055e-003 1.41968429e-002
      -1.21376822e-002 -1.28649101e-002 -1.31316297e-002
      -8.64916947e-003 1.00726197e-002 2.72106491e-002 2.88584991e-003
      2.86993720e-002 4.26300382e-003 -1.67238731e-002 -1.33789359e-002
      -4.23378689e-004 1.34672169e-002 3.24565656e-002 -1.22818351e-002
      -5.17144389e-002 -1.11990003e-003 3.24463914e-003 1.39444815e-002
      6.42474089e-003 -7.85967615e-003 2.70151664e-002 8.25603902e-002
      5.22449426e-002 -3.21239755e-002 1.24902502e-002 2.34890673e-002
      8.47130734e-003 -1.17651522e-002 -3.98539752e-002 -2.10244837e-003
      5.34737483e-002 6.97502047e-002 -2.41427240e-003 1.53736416e-002
      1.25976186e-002 -1.35509009e-002 -3.08424514e-002 1.68338344e-002
      1.23489620e-002 1.09086670e-002 -6.13003876e-003 -3.95312160e-002
      5.52066369e-004 1.12504768e-003 4.84254910e-003 2.10456606e-002
      2.14444399e-002 2.28062365e-002 3.26798148e-002 3.62165980e-002
      -4.90536653e-002 1.11275620e-003 8.95761536e-004 6.63130137e-004
      1.13315210e-002 1.56079896e-003 4.20411117e-003 1.65769178e-002
      8.32806975e-002 -2.19144393e-002 4.00512200e-003 1.14799725e-004
      -1.78816394e-004 2.46504380e-004 -3.70746339e-003 -1.89455936e-003
      -2.77601997e-003 -3.58334859e-003 4.62715421e-003 2.14429013e-002
      -6.91655732e-005 2.39139213e-003 -2.82029039e-003 6.51952811e-004
      2.04575248e-003 -1.40210299e-003 -1.71661004e-003 -2.04298105e-002
      -8.11913610e-003 -1.96821876e-002 -1.16918981e-002
      -5.81942173e-003 -3.05088405e-002 3.16990609e-003 -1.04853546e-003
      -5.56631759e-003 -2.72451360e-002 -1.31108640e-002
      -1.50311198e-002 -1.86092649e-002 -2.97115687e-002
      -2.85026543e-002 -4.75687115e-003 -9.36655700e-003
      -1.86915956e-002 2.12669484e-002 5.87850437e-002 1.79522187e-002
      -1.95242069e-003 -2.68873572e-002 6.63586054e-003 8.09795409e-003
      -1.09744752e-002 2.91883037e-003 2.04581972e-002 6.22692518e-002
      2.07472052e-002 -4.69185458e-003 -4.65034274e-003 -2.84084845e-002
      7.74975633e-003 -3.91972996e-003 -5.13057876e-003 -1.42195858e-002
      1.24368891e-002 -2.97150877e-003 -2.56620087e-002 -4.32590134e-002
      -1.09435488e-002 -2.56925635e-003 -1.62454043e-003
      -1.46033522e-003 -1.63000822e-002 3.18788178e-002 -3.05303365e-005
      -5.30956546e-003 -1.69456359e-002 -2.31783818e-002
      -1.12473816e-002 -7.35880667e-003 2.05745688e-003 1.01281786e-002
      8.76207650e-002 3.87859754e-002 -1.75195152e-003 -1.68699361e-002
      -1.93399377e-002 -2.11239234e-002 -9.69386287e-003
      -1.62300130e-003 -1.00219622e-002 3.03000156e-002 3.79160941e-002
      4.28217975e-003 -1.28346644e-002 5.06225508e-003 4.90319217e-003
      8.89006653e-004 1.25708466e-003 -2.29250304e-002 -5.45178913e-003
      -1.82725471e-002 -5.28061204e-003 1.50688691e-004 -2.58272663e-002
      5.36885951e-003 -7.59817203e-006 -3.34448926e-003 -2.09437013e-002
      -8.49353895e-003 -1.06738750e-002 -1.14151267e-002
      -1.36560807e-002 -2.46340856e-002 1.10202131e-003 -9.29087866e-003
      -7.46038649e-003 -1.00130923e-002 -1.84163311e-003 1.18423533e-002
      6.58359984e-003 4.03655553e-003 1.18397130e-002 1.47604048e-002
      -3.00644571e-003 1.30560547e-002 2.26208493e-002 6.23489432e-002
      2.30817553e-002 -2.06940062e-003 2.73873121e-003 -2.70238426e-002
      -5.39924856e-003 5.27749828e-004 -2.28792080e-003 -2.90088635e-003
      2.20491551e-002 8.06516409e-003 -2.14005485e-002 -3.71836200e-002
      -2.60482263e-002 -2.26173061e-003 -1.73045285e-002
      -8.41607898e-003 -2.14966610e-002 -6.74984837e-003 2.92130490e-003
      -9.58245434e-003 -8.02183896e-003 -1.64066833e-002
      -7.98812974e-003 -4.48074937e-003 4.57946397e-003 1.64506305e-002
      8.66610408e-002 4.89129238e-002 1.58908567e-003 -1.03829009e-002
      -2.52003055e-002 -2.54163928e-002 -1.58126578e-002
      -3.71581496e-004 -4.86395834e-003 4.73171473e-002 5.98734021e-002
      1.00993589e-002 -1.31221777e-002 -1.18728271e-002 -1.25966892e-002
      -2.47728378e-002 -1.20151611e-002 -7.02056149e-003 4.71615046e-003
      1.60501581e-002 4.31541848e-004 -1.24548199e-002 -2.19985712e-002
      8.93472973e-003 2.86225881e-003 6.93314825e-004 -2.23019789e-003
      9.49051522e-004 7.90468417e-003 6.10827049e-003 -4.13296884e-003
      -8.93154927e-003 7.04830373e-003 -5.18053118e-003 -5.36242500e-003
      -7.96990748e-003 4.85975033e-004 1.93293560e-002 2.20630169e-002
      1.34452255e-002 1.65103597e-003 6.25086296e-003 -5.63584454e-003
      -2.06090193e-002 -4.41205222e-003 -1.42021687e-003 1.67444497e-002
      1.94695815e-002 1.05032837e-002 -2.33245362e-002 1.64307631e-003
      8.45468044e-003 4.50298795e-003 1.13396263e-002 2.28885598e-002
      2.79037263e-002 -1.10534830e-002 -2.53228992e-002 -1.68503206e-002
      6.87653292e-003 -1.79135315e-002 2.04592664e-003 -2.54745502e-003
      7.86613300e-003 1.21142184e-002 -4.81510954e-003 8.25875439e-003
      2.74954177e-002 5.39149670e-003 -1.17986389e-002 -1.27405841e-002
      -6.90313894e-003 4.08624299e-003 1.27090989e-002 7.70496437e-004
      3.09660705e-003 -1.65877063e-002 -1.72285754e-002 -9.82310809e-003
      2.21690140e-003 1.70892896e-003 4.60205674e-002 5.35931028e-002
      1.43502383e-002 -5.76729514e-003 -9.01275221e-003 -7.55629828e-003
      -2.74731554e-002 -1.10464031e-002 -8.05874646e-004 1.11948224e-002
      2.64094360e-002 9.72995535e-003 -1.24552362e-002 7.06284598e-004
      4.25338093e-003 -1.34321703e-002 -1.79034974e-002 3.78650706e-003
      1.11788861e-003 2.55924044e-003 -3.32099898e-003 -1.67099368e-002
      -9.42864176e-003 8.27453937e-003 -3.35349469e-003 -3.02633829e-003
      -6.02773903e-003 -8.35570565e-004 1.87859330e-002 1.82521958e-002
      1.32184355e-002 4.19212272e-003 6.96004136e-003 -2.97646364e-003
      -2.58379448e-002 -1.40184723e-003 -1.48732378e-003 1.62408426e-002
      2.34456901e-002 1.28318304e-002 1.68376639e-002 1.32493638e-002
      -7.42424326e-003 -3.16435583e-002 7.25115067e-004 7.34827830e-004
      1.22163270e-003 2.07003690e-002 8.55893362e-003 -2.12234026e-003
      1.13030709e-002 -1.52078569e-002 4.01973631e-003 7.35125432e-005
      7.77018676e-003 7.23044155e-003 -6.14491804e-003 1.06379772e-002
      3.29671800e-002 7.05574360e-003 -1.42097874e-002 -1.23150423e-002
      6.19404111e-003 1.26903569e-002 1.42288199e-002 2.56711384e-004
      1.18775638e-002 4.20052297e-002 2.47247089e-002 -9.15975470e-005
      -1.76523179e-002 1.19142178e-002 1.76923051e-002 6.89379964e-003
      8.13508290e-004 1.82195362e-002 -3.76140350e-003 -1.01662823e-003
      -1.65597796e-002 -5.61464904e-003 1.25789980e-003 5.11094229e-003
      1.94202773e-002 6.53976388e-003 -1.24654630e-002 1.48026284e-003
      1.04440255e-002 -5.25854062e-003 -1.38310492e-002 1.00178104e-002
      2.59853108e-003 1.69463444e-003 -8.36308673e-003 -1.77575964e-002
      5.12878364e-003 1.57406293e-002 1.25368042e-002 -2.27598054e-003
      3.92313494e-004 2.49437266e-003 -4.98639233e-003 -2.25227196e-002
      -1.51901515e-002 4.56603337e-003 1.36320731e-002 2.50242441e-003
      -2.06475426e-002 1.20517288e-004 -1.99371995e-003 1.14855049e-002
      2.08031870e-002 9.27026849e-003 2.00785585e-002 1.99206229e-002
      -3.35423066e-003 -3.14330906e-002 -2.27446537e-004 7.31157430e-004
      -1.29695015e-003 1.93568487e-002 8.80702864e-003 9.15389787e-003
      1.13382610e-002 1.34015270e-002 -1.20681049e-002 -3.88093889e-002
      2.50277435e-003 3.42532899e-003 1.51221594e-002 1.74165387e-002
      2.92308647e-002 1.50767211e-002 -4.39070212e-003 -1.40312593e-002
      3.42166307e-003 6.82862662e-003 1.40324300e-002 1.05372258e-003
      5.37896203e-003 4.76351976e-002 3.12724486e-002 1.27990460e-002
      -1.77645814e-002 2.59398343e-003 2.18465291e-002 6.98677730e-003
      1.80486054e-003 2.60930639e-002 3.18663530e-002 2.13899277e-002
      2.94711925e-002 -9.38755553e-003 -3.92406918e-002 2.22660918e-002
      1.00073628e-002 3.36288707e-003 3.05036288e-002 -3.03376321e-004
      8.18108302e-003 -1.69869093e-003 -1.49180358e-002 6.27973536e-003
      1.36010977e-003 -1.74527685e-003 -1.20887766e-002 -1.81724392e-002
      6.43987395e-003 2.02503130e-002 2.05763318e-002 -2.55690655e-003
      -1.40324282e-003 3.75093706e-003 -7.15140533e-003 -3.02395299e-002
      -2.13936958e-002 1.28445518e-003 1.34632662e-002 3.29595320e-002
      -1.85547527e-002 -3.25971991e-002 1.72689965e-003 3.99552460e-004
      -2.64062434e-002 -1.79003254e-002 1.16536869e-002 1.25583708e-002
      -1.02328311e-003 -2.54861359e-002 -1.74860284e-003 2.58713320e-004
      -4.31386940e-003 1.24006672e-002 3.29454406e-003 7.99503364e-003
      1.16625456e-002 1.71641260e-002 -1.08355191e-002 -5.28231747e-002
      5.94782643e-004 1.65808934e-003 1.24033513e-002 1.42444782e-002
      7.11514987e-003 1.82523262e-002 2.73559932e-002 1.81755777e-002
      -5.13475835e-002 -1.68591540e-003 1.21439574e-003 8.61025066e-004
      -8.34460836e-004 3.36456113e-002 2.12593991e-002 1.09654712e-002
      -1.88662764e-002 8.25339870e-004 1.65883265e-002 1.39132293e-003
      -1.06757798e-003 1.08378157e-002 3.08337659e-002 2.01750286e-002
      3.85319330e-002 -7.16251414e-003 -5.20850644e-002 1.63486581e-002
      3.26207350e-003 2.09937477e-003 2.29246020e-002 4.04843204e-002
      1.90388337e-002 6.43099397e-002 3.50243188e-002 -4.50927392e-002
      5.29856887e-003 -4.39936202e-003 -2.24239677e-002 8.45169555e-003
      3.92178399e-003 1.04637891e-002 1.89651903e-002 -1.22078368e-003
      -3.26107861e-003 1.05060486e-003 -7.18226563e-003 -3.04028969e-002
      -1.92840453e-002 6.80501398e-004 1.75783075e-002 5.10269962e-002
      -1.11352336e-002 -3.08640432e-002 1.11467182e-003 -1.56070618e-003
      -2.62510329e-002 -2.24833973e-002 -2.02330947e-003 2.55299849e-004
      4.93536033e-002 5.49587756e-002 -1.05398698e-002 2.66360445e-003
      -4.10099048e-003 -3.03445589e-002 -2.06660721e-002
      -1.96939614e-002 -2.62966077e-003 7.77960150e-003 -5.85324084e-003
      -3.68138850e-002 -1.11026247e-003 -2.02306219e-005 4.11508232e-003
      5.92245208e-003 -1.54745886e-002 7.86139071e-003 2.87181661e-002
      3.18813697e-002 -4.31962013e-002 2.48610304e-004 8.52146244e-004
      -5.22290065e-004 -6.67275069e-003 -2.33385004e-002 2.61452718e-004
      1.83984507e-002 7.75346979e-002 -2.86572427e-002 1.60291162e-003
      -1.46049995e-003 -3.51412920e-003 -2.17391010e-002 2.19433587e-002
      1.23630613e-002 3.40732299e-002 -1.18464213e-002 -5.76672517e-002
      3.07121756e-003 -1.54752517e-003 -1.30618019e-002 1.92787312e-002
      3.22843008e-002 1.03766043e-002 5.86204305e-002 5.76986000e-002
      -3.92502546e-002 5.63939277e-004 -5.50421374e-003 -1.84231699e-002
      8.65812786e-003 -4.20731585e-003 -5.37676085e-003 2.87818182e-002
      7.32484236e-002 -1.06567964e-002 -5.85551001e-003 -2.11322750e-003
      -5.93079301e-003 -7.42004719e-003 -7.26062979e-004
      -4.61666757e-004 3.05397864e-002 -5.79029741e-003 -1.82657931e-002
      -6.87120541e-004 -1.51669292e-003 -2.14036405e-002
      -1.06480317e-002 -4.18088166e-003 -6.00081449e-003 5.06563038e-002
      6.27222285e-002 -1.41484831e-002 7.42424687e-004 -3.64803872e-003
      -2.92252246e-002 -1.57360081e-002 -1.12191131e-002
      -1.28754769e-002 1.00139230e-002 6.51440024e-002 -6.29012957e-002
      -6.07078895e-004 -1.58187293e-003 -1.01861730e-002
      -8.94340593e-003</_>
    <_>
      -1.50530715e-003 -3.37262591e-003 4.96286293e-003 2.29373835e-002
      1.48578640e-003 -1.49879465e-003 -9.85340681e-004 -5.08397236e-004
      -8.53093690e-004 -1.38049887e-003 -2.57041538e-003 1.63541492e-002
      9.95375402e-003 -1.71849784e-002 7.60075054e-004 -4.33552690e-004
      -4.38879739e-004 -9.13419353e-004 7.88608624e-004 3.08260275e-003
      1.75581295e-002 -2.84695346e-003 -2.28048582e-002 -1.37073023e-003
      5.28752338e-004 -1.22770754e-004 2.03781819e-004 1.57752994e-003
      1.71706415e-004 8.51029810e-003 1.92415211e-002 7.25923851e-003
      -2.24011461e-003 -6.23201660e-004 -1.29908032e-004 1.44149305e-003
      5.86180296e-003 7.54854782e-003 1.94513835e-002 -3.85068520e-003
      -2.77132615e-002 -9.35850292e-003 4.64003626e-003 5.55505184e-003
      3.24611180e-003 1.56588517e-002 1.62105709e-002 2.73866728e-002
      -8.17187317e-003 -3.51094045e-002 -4.34142821e-005 1.18837617e-002
      7.69723766e-003 9.30694770e-003 7.95504428e-004 8.54066981e-004
      -7.86317687e-004 8.65094177e-003 4.23399080e-003 -1.15955481e-003
      1.97927257e-005 -5.11425169e-005 7.84956734e-004 3.55568319e-003
      3.64443706e-003 2.69395579e-003 4.05289279e-003 -2.39443257e-002
      -1.30440751e-002 -4.48681414e-004 1.37116783e-003 2.85518519e-003
      7.99664669e-003 7.29272235e-003 1.13708805e-002 -2.92867119e-003
      -2.38969028e-002 -3.28470231e-003 4.04117024e-003 1.96180330e-003
      5.54898055e-003 -1.05362199e-003 -9.79328994e-004 1.65040866e-002
      -3.96889728e-003 -2.27147173e-002 5.96406637e-004 -2.41170244e-004
      -4.00248187e-004 -9.33480565e-004 1.48387684e-003 6.32178597e-003
      2.43266132e-002 -4.96383151e-003 -2.86741126e-002 -1.15546002e-003
      5.30419755e-004 4.14408365e-004 7.46954640e-004 1.46823830e-003
      4.86646220e-003 1.18736960e-002 2.59418320e-003 -1.33769109e-003
      2.83616153e-003 7.33637193e-004 2.65503372e-003 2.02871603e-003
      8.36785976e-003 1.04417922e-002 1.78494547e-002 -1.65571738e-002
      -3.90758216e-002 -1.36736166e-002 6.86353631e-003 7.07143731e-003
      4.96545248e-003 1.97975785e-002 2.76627000e-002 2.85450704e-002
      -9.06199310e-003 -3.64800729e-002 -1.24372309e-003 1.22808833e-002
      1.40884658e-002 1.82851590e-002 3.10489535e-002 2.47184448e-002
      1.70876887e-002 -5.89668192e-003 -1.79482494e-002 5.20049175e-003
      1.23556582e-002 1.15796877e-002 2.11356934e-002 5.64302597e-003
      6.26961701e-003 6.60157111e-003 3.06504546e-003 -3.06902528e-002
      -1.80143751e-002 -7.44452758e-004 1.93090038e-003 4.72968351e-003
      1.54793980e-002 1.56581607e-002 1.24201393e-002 1.13429036e-004
      -2.52044182e-002 -4.42753825e-003 4.69976896e-003 4.84937895e-003
      8.13237485e-003 1.70017462e-002 1.36883911e-002 1.53644374e-002
      -2.61058547e-002 -3.79874595e-002 -1.27192831e-003 9.12436750e-003
      8.04692972e-003 1.13538187e-002 1.09679555e-003 6.63573341e-003
      1.68726370e-002 -8.18162970e-003 -3.04036513e-002 -3.91158042e-003
      -4.27972118e-004 3.91858397e-004 7.50772539e-004 2.36844108e-003
      7.96577428e-003 1.39964195e-002 1.92582922e-003 -5.51881921e-003
      1.41305791e-003 5.87235729e-004 4.55992203e-003 3.09259933e-003
      1.71304157e-003 4.41194186e-003 1.44239771e-003 -4.33653724e-007
      -3.58592346e-003 4.05819774e-005 5.06341597e-003 4.53119213e-003
      2.02139700e-003 2.05923915e-002 2.46271417e-002 2.18939800e-002
      -1.68908034e-002 -3.58776040e-002 -1.11555941e-002 9.06274002e-003
      1.04191722e-002 1.43362666e-002 3.21072191e-002 2.10330784e-002
      1.11136846e-002 -2.47139465e-002 -4.07561362e-002 -8.28617427e-004
      8.92773177e-003 1.46098565e-002 2.77541112e-002 2.45200787e-002
      1.31307198e-002 2.63530854e-003 -2.47820932e-002 -2.64204573e-002
      -4.13125241e-003 8.35751649e-003 1.20831747e-002 2.68212091e-002
      1.23599544e-002 1.14552910e-002 1.22516938e-002 -9.03484120e-004
      -2.57721506e-002 -7.53632048e-003 4.92434250e-003 3.86674982e-003
      7.46051921e-003 1.99034698e-002 1.40661215e-002 4.83397301e-003
      -4.92313355e-002 -5.65906987e-002 -1.36025967e-002 8.86354968e-003
      1.09919840e-002 1.23223346e-002 7.38921482e-003 1.00390865e-002
      -8.91133794e-004 -4.36616912e-002 -6.42767325e-002
      -3.12226452e-002 2.65689683e-004 4.05700365e-003 3.33051546e-003
      1.57990714e-003 4.89545660e-003 8.83181673e-003 -2.21561495e-004
      -6.04763580e-003 5.11216756e-004 6.66912878e-004 3.59149743e-003
      1.59446115e-003 1.71159441e-003 4.11214866e-003 -4.98766836e-004
      -2.37197103e-003 -7.50189554e-003 -1.68850773e-003 3.98534629e-003
      5.24280127e-003 2.59526307e-003 6.09487528e-004 6.78416749e-004
      -1.17068971e-003 -1.25570991e-003 -4.11844300e-003
      -9.61406389e-004 5.06688422e-003 3.39409010e-003 2.24085501e-003
      3.15610319e-002 1.37930363e-002 6.52922736e-003 -2.51907576e-002
      -3.65996547e-002 -2.63384846e-003 6.76182052e-003 1.24262050e-002
      2.47734711e-002 2.27320474e-002 1.13598583e-002 -2.67282687e-003
      -3.07485070e-002 -4.29717265e-002 -1.29540032e-002 5.46685886e-003
      1.06475558e-002 2.57601775e-002 2.67703049e-002 3.26748602e-002
      1.46739827e-002 -6.17681956e-003 -4.04790528e-002 -1.77807622e-002
      8.50888435e-003 2.77694725e-002 2.95941196e-002 1.46681517e-002
      7.94758648e-003 1.46899605e-003 -5.50846979e-002 -6.14911802e-002
      -1.37396399e-002 6.33363193e-003 8.61470681e-003 1.04588950e-002
      2.30571767e-003 8.20222404e-003 -5.27053885e-003 -4.62591201e-002
      -6.66271225e-002 -4.30328399e-002 -2.99046224e-004 4.77915537e-003
      1.72140299e-005 1.48156686e-002 1.43340081e-002 1.77074596e-002
      -4.54143528e-003 -3.83517221e-002 -1.90872867e-002 2.07259716e-003
      1.18116867e-002 1.78822614e-002 7.62329844e-004 1.97698618e-003
      -7.29242340e-004 -7.55256158e-004 -5.64333797e-003
      -1.63345365e-003 3.62793310e-003 2.72749690e-003 1.84823503e-003
      9.25070664e-004 8.39599408e-004 -9.32993193e-004 -2.60483311e-003
      -1.59037393e-002 -2.94915889e-003 9.11839493e-003 4.45232959e-003
      2.97309225e-003 -2.65329960e-004 2.05983128e-003 1.03669113e-003
      -1.48090804e-002 -6.59705400e-002 -2.18261927e-002 1.18852817e-002
      5.21047739e-003 1.64468971e-003 1.49230771e-002 1.12429308e-002
      7.33859465e-003 -2.03444175e-002 -3.77369002e-002 -1.36945648e-002
      6.54180860e-003 1.33152232e-002 2.44529545e-002 3.30212228e-002
      4.14185300e-002 1.73028447e-002 -5.59953321e-003 -5.22346646e-002
      -2.25866735e-002 1.42134847e-002 3.23064998e-002 3.04282680e-002
      2.64000818e-002 3.55155058e-002 2.32269354e-002 -2.12684013e-002
      -6.42803013e-002 -4.49672639e-002 2.83407397e-003 2.45510992e-002
      1.69395674e-002 3.34194954e-003 6.31093886e-003 3.37227248e-003
      -3.23115699e-002 -5.66723570e-002 -3.18225026e-002
      -8.74726102e-005 3.96055588e-003 2.61984556e-003 1.82349235e-002
      2.17555668e-002 1.96304768e-002 -3.36128217e-003 -4.38210070e-002
      -1.80351976e-002 3.89133068e-003 1.58994738e-002 2.23977584e-002
      1.25942240e-002 1.93043482e-002 5.00968518e-003 -3.56333144e-003
      -2.02518553e-002 -6.46991329e-003 1.60374697e-002 2.33842209e-002
      1.27434386e-002 1.45660923e-003 1.27301854e-003 1.26599113e-003
      1.01025566e-003 -4.99599846e-003 6.14878256e-004 8.17199424e-003
      3.05599812e-003 2.36680475e-003 1.24329585e-003 6.50057895e-003
      3.17468983e-003 -1.21120857e-002 -5.71891144e-002 -1.59585085e-002
      1.27722472e-002 4.40832507e-003 2.21255142e-003 2.50317110e-003
      6.72010565e-003 -3.38458014e-003 -2.54104640e-002 -3.58589999e-002
      5.30639524e-003 9.24781710e-003 -4.37963009e-003 8.01347487e-004
      2.80444901e-002 4.21614461e-002 2.37948131e-002 1.95461372e-003
      -2.09243950e-002 -6.13758340e-003 1.39505463e-002 2.80246679e-002
      3.07557676e-002 2.96259746e-002 3.85642648e-002 2.78618447e-002
      -1.40805170e-002 -6.07518479e-002 -4.23748083e-002 3.28537379e-003
      2.26969253e-002 2.30018999e-002 1.94616858e-002 1.89274605e-002
      -1.94493367e-003 -2.45873090e-002 -5.32090962e-002
      -1.44021828e-002 -1.27736211e-003 -2.22088560e-003 1.45766204e-002
      1.63993835e-002 1.93292238e-002 1.39744235e-002 3.20618507e-003
      -1.61442701e-002 -6.02300512e-003 4.91426606e-003 1.44148758e-002
      1.66171603e-002 1.35875186e-002 2.03813538e-002 8.31449404e-003
      -2.58955150e-003 -1.42140407e-002 -3.09672044e-003 1.74931772e-002
      2.56182943e-002 1.52437035e-002 4.04671440e-003 1.97724625e-003
      1.47091283e-003 -9.25958343e-003 -2.49362383e-002 -6.79319911e-003
      1.43325813e-002 1.07426429e-002 7.63932010e-003 6.61787402e-004
      4.30893945e-003 1.82123994e-003 -6.06597448e-003 -3.45772244e-002
      -8.06451309e-003 8.17891490e-003 1.42199371e-003 1.02700002e-003
      2.56179296e-003 5.47583960e-003 -2.36630929e-003 -1.50760310e-002
      -2.12956872e-002 2.10464038e-002 1.59649290e-002 -1.81023090e-003
      1.27711496e-003 2.63933529e-004 -6.24955632e-004 -1.82889355e-003
      -5.90225169e-003 -6.38011470e-003 3.39616649e-002 7.63043761e-003
      1.57023969e-004 3.91402456e-004 2.10284516e-002 3.09386402e-002
      1.94765031e-002 -9.50030889e-003 -4.38091122e-002 -2.83664297e-002
      8.32009595e-003 1.65935699e-002 1.46743525e-002 1.67319756e-002
      1.53120877e-002 -2.28303857e-003 -1.74824074e-002 -3.80829237e-002
      -4.04212251e-003 1.61697133e-003 1.14970899e-003 1.36117255e-002
      3.75155616e-003 5.34022285e-004 -1.47826780e-004 -1.88738946e-002
      -6.72972528e-003 9.38661303e-003 2.25855759e-003 1.56628608e-003
      5.25172660e-003 6.81004068e-003 9.52118635e-003 4.45177266e-003
      -2.03692587e-003 -1.22834556e-002 -2.14258046e-003 1.38139343e-002
      1.27257360e-002 6.59882091e-003 2.55985302e-003 1.54708617e-003
      3.53018870e-003 -5.41964592e-003 -2.75038034e-002 -2.71595153e-003
      1.47715323e-002 7.19176885e-003 4.87479614e-003 9.36602824e-004
      2.40051013e-004 2.98216892e-003 -8.71425495e-003 -9.03896242e-003
      1.21918870e-002 1.82372518e-003 8.42539885e-004 9.99168376e-004
      9.71431262e-004 1.19678699e-003 1.85817434e-003 1.09352767e-002
      2.94806063e-003 -1.68393867e-003 -9.35210555e-005 4.82229807e-005
      7.06916326e-004 4.75898851e-003 3.78499692e-003 1.05076013e-002
      3.55667807e-003 -2.17963159e-002 -1.21001787e-002 9.28639900e-004
      1.53700053e-003 3.07846908e-003 7.15956651e-003 5.83077408e-003
      1.56799015e-002 2.88307737e-003 -1.53846387e-002 -5.12111175e-004
      5.37417270e-003 2.33329181e-003 5.72110526e-003 1.43283489e-003
      2.79163942e-003 6.04489306e-003 -1.49149178e-002 5.61244646e-003
      3.08022904e-003 4.45320364e-003 5.79248474e-004 1.30367698e-003
      6.10573404e-003 9.26688872e-003 2.09322628e-002 8.54936370e-004
      -7.13719334e-003 -1.12073736e-004 -3.09882662e-003 3.91749851e-003
      4.95586824e-003 5.52246021e-003 7.67737348e-003 2.10233573e-002
      4.16314369e-003 4.93357191e-003 -7.43927609e-004 -9.76508483e-003
      -4.39896854e-003 5.71610825e-003 4.33113397e-004 2.43373404e-004
      2.94132833e-003 -1.27483755e-002 -1.40392026e-002 4.92712192e-004
      2.44986638e-003 8.11983482e-004 5.18134155e-004 3.35397839e-004
      2.05926620e-003 1.39168510e-002 -1.01674907e-002 -1.21977003e-002
      1.18853357e-002 1.28453616e-002 4.46884986e-003 1.17723376e-003
      -4.80089861e-004 2.41047630e-004 7.83501565e-003 -1.20811077e-004
      7.60371517e-003 3.99729935e-003 4.77125309e-003 -3.25325993e-004
      -1.43764555e-004 6.74374821e-003 5.70135750e-003 1.27680432e-002
      6.38286211e-003 -2.22997591e-002 -1.20840138e-002 1.79521856e-003
      2.20654719e-003 4.90062218e-003 1.30464742e-002 1.17456345e-002
      2.32104287e-002 7.30713550e-003 -1.61338504e-002 2.90598691e-004
      8.99043772e-003 5.79618104e-003 1.12386392e-002 1.44418813e-002
      1.08002899e-002 1.08155152e-002 -6.46873564e-003 -1.45004261e-002
      3.81383637e-004 8.45104456e-003 6.72889268e-003 1.29755009e-002
      9.29923728e-003 1.35040525e-002 2.60045994e-002 2.03537452e-003
      -9.58443526e-003 -2.76675727e-003 -2.93108169e-003 5.52381575e-003
      8.07815418e-003 8.01771227e-003 1.03604561e-002 1.84763875e-002
      1.17919343e-002 -1.47205964e-003 2.06840690e-003 -1.30803818e-002
      -2.90225819e-003 4.44730558e-003 7.59561639e-003 5.30060381e-003
      -3.82825546e-003 -5.33655547e-002 -3.66093926e-002 1.62966014e-003
      7.18301022e-003 7.47586600e-003 1.06316647e-002 4.53678629e-004
      2.62057595e-003 1.64077859e-002 -1.21836746e-002 -4.90544364e-003
      1.06158657e-002 1.34399487e-002 6.14117784e-003 1.93698914e-003
      -1.18476222e-003 -3.38514103e-004 9.86894500e-003 -2.36974587e-003
      1.00893155e-002 6.01057056e-003 5.23770880e-003 -8.54541897e-004
      9.69915593e-004 -8.57984705e-004 -4.61741351e-003 -1.17515288e-002
      -5.14644682e-002 -3.58006321e-002 4.48636757e-003 4.71377885e-003
      1.38597318e-003 2.18881760e-003 1.79907642e-002 1.67623516e-002
      2.15630885e-002 1.24060037e-002 -6.21458050e-003 4.21413640e-003
      1.22294193e-002 5.95470145e-003 1.19475620e-002 2.63788830e-002
      2.08986662e-002 1.99970864e-002 -7.08162040e-003 -1.54033713e-002
      4.20346437e-003 1.13768047e-002 1.33258905e-002 2.19308678e-002
      1.97489318e-002 1.41979801e-002 1.68031324e-002 -9.52440035e-003
      -1.37013877e-002 3.07971914e-003 6.91013364e-003 1.00213774e-002
      1.68533251e-002 1.01922275e-002 1.59055572e-002 2.68613733e-002
      1.92808639e-002 1.41296294e-002 1.11050857e-002 -1.39261503e-003
      -5.66072296e-004 8.12751520e-003 1.51903899e-002 1.62576344e-002
      -2.50449846e-003 -6.50363788e-002 -4.23174463e-002 4.96096117e-003
      1.14257028e-002 1.32129574e-002 1.51054896e-002 8.41969997e-003
      1.51195358e-002 5.72846504e-003 -3.95472571e-002 -4.71677110e-002
      -3.20851617e-002 2.63895467e-003 1.45960236e-002 1.04917269e-002
      1.36389257e-003 3.29463888e-004 9.19843372e-003 4.09527961e-003
      1.80731900e-002 1.14697209e-002 6.36899099e-003 3.28645320e-003
      3.70109407e-003 1.37234677e-003 -2.03893986e-003 -1.05911884e-002
      -5.08056432e-002 -3.35590877e-002 6.00903621e-003 7.72821531e-003
      4.37363470e-003 6.13504695e-003 1.76166196e-003 2.70943507e-003
      1.62942917e-003 -1.91349685e-002 -2.79080719e-002 -2.78758407e-002
      -1.16879120e-003 6.46603620e-003 3.97981750e-003 2.46191863e-002
      1.82538088e-002 1.53583791e-002 -6.97991624e-003 -1.12002157e-002
      4.23480803e-003 9.26413666e-003 1.06777381e-002 1.90113541e-002
      2.26513632e-002 1.90848373e-002 2.13327911e-002 -6.00879733e-003
      -1.28481472e-002 6.31206948e-003 1.25324773e-002 1.57027934e-002
      2.46853679e-002 1.93452891e-002 2.03739218e-002 2.05246229e-002
      4.60415147e-003 -4.34546545e-003 -1.09217409e-003 8.00833665e-003
      1.78919882e-002 2.58678310e-002 1.48236128e-002 1.76891461e-002
      -1.90275314e-003 -6.41048774e-002 -3.99188995e-002 1.50594034e-003
      1.24652432e-002 1.43883172e-002 1.58611815e-002 1.30224777e-002
      1.89235322e-002 7.14600179e-003 -3.75543572e-002 -4.08930853e-002
      -3.49730551e-002 3.98690859e-003 1.73896831e-002 1.22109987e-002
      1.59086771e-002 1.61008053e-002 2.27063056e-002 1.29570505e-002
      -7.89217371e-003 -1.52024776e-002 3.98181425e-003 1.45961409e-002
      1.94609892e-002 2.92052887e-003 4.60860581e-004 -6.03347039e-003
      -4.35267091e-002 -3.20769474e-002 2.27212440e-003 5.36578335e-003
      3.99052724e-003 5.14928531e-003 2.18578335e-003 4.64145700e-003
      7.26308767e-003 -1.18301790e-002 -2.15136074e-002 -3.66247557e-002
      -3.40794772e-003 6.92624226e-003 3.94113967e-003 2.83312518e-004
      5.72257768e-003 1.59802381e-002 1.07998727e-002 -4.04385477e-003
      -2.50672884e-002 -5.11345966e-003 2.39368808e-003 -1.60685577e-003
      1.39958868e-002 1.46552855e-002 1.94511525e-002 -5.23479702e-003
      -2.09358726e-002 -1.71078322e-003 7.52760330e-003 1.10685574e-002
      1.40410922e-002 2.26948652e-002 2.67020818e-002 2.14113370e-002
      3.51635856e-003 -1.22677088e-002 -4.63947188e-003 9.26826149e-003
