<?xml version="1.0"?>
<opencv_storage>
<svm type_id="opencv-ml-svm">
  <svm_type>C_SVC</svm_type>
  <kernel><type>LINEAR</type></kernel>
  <C>1.</C>
  <term_criteria><epsilon>2.2204460492503131e-016</epsilon>
    <iterations>1000</iterations></term_criteria>
  <var_all>2268</var_all>
  <var_count>2268</var_count>
  <class_count>2</class_count>
  <class_labels type_id="opencv-matrix">
    <rows>1</rows>
    <cols>2</cols>
    <dt>i</dt>
    <data>
      0 1</data></class_labels>
  <sv_total>1</sv_total>
  <support_vectors>
    <_>
      -1.09940439e-001 -4.72929925e-002 -1.25692576e-001
      -8.61944258e-001 5.41974962e-001 5.20131171e-001 7.82064348e-002
      2.00882144e-002 -1.35147676e-001 1.30059272e-001 1.09348044e-001
      -2.51985103e-001 -8.01217258e-002 3.59899439e-002 2.89846808e-001
      8.77848938e-002 -1.16541237e-002 -6.41742200e-002 -1.09652877e-002
      -1.60219952e-001 9.46122557e-002 2.90372431e-001 6.73864782e-002
      1.09720379e-001 -1.71505973e-001 2.77032573e-002 2.43301298e-002
      -6.60648867e-002 1.43629074e-001 1.77633569e-001 -1.52351037e-002
      -5.24649918e-002 4.54162180e-001 4.40862253e-002 4.36856240e-001
      3.32599580e-001 -3.14799622e-002 -1.07253762e-003 -3.25434387e-001
      -4.56255674e-001 -4.03254032e-001 -4.90951061e-001 1.61287516e-001
      3.50231677e-001 6.40068576e-002 1.71164647e-002 -8.04945454e-002
      -4.75928426e-001 -7.63134435e-002 1.00171521e-001 9.05642062e-002
      -1.16097577e-001 4.44217920e-002 -5.87999932e-002 1.08833805e-001
      6.99045807e-002 1.00963943e-001 -3.83004934e-001 -2.46709153e-001
      3.15482765e-002 -2.83797354e-001 1.03261217e-001 1.39309198e-001
      1.42887980e-001 5.35666384e-002 -1.15437701e-001 -1.55599102e-001
      -6.22569621e-002 -1.65662125e-001 -9.21986178e-002 5.93548231e-002
      1.13048434e-001 3.29057723e-001 2.60142535e-001 -2.37190500e-001
      2.59249061e-002 -6.38213456e-002 -1.68801382e-001 -1.97813466e-001
      -8.65337532e-003 6.42039925e-002 1.97044060e-001 1.69149235e-001
      -3.61202769e-002 4.73254323e-001 1.19502261e-001 2.46719852e-001
      -1.13827670e-002 -3.77064608e-002 2.05444898e-002 4.76661185e-003
      -5.71366362e-002 3.40082087e-002 3.33545618e-002 2.42701694e-001
      1.26757339e-001 -2.41585687e-001 1.19362224e-003 1.17223866e-001
      -4.23454829e-002 -2.53411472e-001 -1.39355436e-001 1.88111067e-002
      2.80091047e-001 8.09053928e-002 3.71122733e-002 3.01841628e-002
      8.36941004e-002 -6.68410584e-002 1.50188610e-001 1.74749792e-001
      2.26167575e-001 -1.29028395e-001 -1.98611561e-002 1.10078771e-002
      9.62258726e-002 -1.36796445e-001 -1.30592927e-001 2.05537260e-001
      1.89783424e-001 -1.40173301e-001 -2.36413419e-001 2.19884381e-001
      -4.57690991e-002 -1.37458265e-001 8.41924995e-002 2.13420093e-001
      -8.82437155e-002 -6.85583577e-002 3.79301771e-003 -1.15245260e-001
      2.39496246e-001 4.00095209e-002 -4.56679426e-002 1.73550174e-001
      -2.13251963e-001 -4.31262143e-002 -1.23698063e-001 3.44716683e-002
      -1.80066869e-001 -7.83902332e-002 -2.58339656e-004
      -9.72624421e-002 -1.83922127e-001 2.96246439e-001 3.44275683e-001
      1.58861682e-001 -7.38895908e-002 1.63794577e-001 2.40813300e-001
      -1.32584229e-001 3.32046859e-002 2.58320160e-002 6.64798021e-002
      1.63964689e-001 -2.70484626e-001 -3.70911248e-002 2.42161766e-001
      1.77813783e-001 -1.48255944e-001 -1.83822259e-001 -1.45645894e-003
      -9.32574943e-002 4.80162352e-002 2.66344212e-002 -1.97072700e-001
      -3.21277291e-001 1.89593080e-002 -2.55542666e-001 1.28169954e-002
      8.24501142e-002 3.02225985e-002 -3.43174092e-004 2.72601321e-002
      3.49513650e-001 7.72689879e-002 6.25452995e-002 1.68836769e-002
      -3.35483253e-002 1.44988187e-002 2.50530560e-002 1.24903545e-001
      -4.10911813e-002 2.07752660e-001 8.61688331e-002 -2.04402730e-002
      -7.88728595e-002 -1.11563630e-001 -1.07244357e-001
      -2.55279928e-001 -5.37148397e-003 3.15125324e-002 -4.01782058e-002
      -1.51298523e-001 1.18211627e-001 2.21448243e-001 -1.46111667e-001
      -1.00228325e-001 9.17536095e-002 3.24234786e-003 3.84253561e-001
      -2.64660753e-002 -6.88173547e-002 -1.01750284e-001 1.96901590e-001
      3.54482740e-001 -7.67742842e-002 -1.37759998e-001 2.17014313e-001
      -2.69805402e-001 7.71308318e-002 1.80590339e-002 -1.44824594e-001
      -8.62133652e-002 -5.09186462e-002 5.80621464e-003 6.64306358e-002
      3.96563858e-002 4.79492173e-002 1.79452151e-001 -7.82094300e-002
      1.79961279e-001 1.54310688e-001 1.71416089e-001 8.36370438e-002
      4.15908322e-002 3.65306577e-003 2.03337088e-001 -1.08684555e-001
      6.89263567e-002 2.19898194e-001 -6.36636168e-002 -6.75820708e-002
      -6.17231317e-002 7.56838322e-002 1.79549277e-001 -1.34852394e-001
      -8.82689133e-002 8.54241997e-002 1.78105608e-002 -3.61381203e-001
      -9.03096050e-002 -5.57609648e-002 1.09865069e-001 2.53650725e-001
      -2.91859005e-002 1.85365990e-001 -6.86903000e-002 -1.19424745e-001
      -6.76620705e-003 -2.29435824e-002 4.88444753e-002 3.75168733e-002
      1.70867056e-001 -5.48868179e-002 2.13444695e-001 5.27443364e-002
      1.39990166e-001 1.16960771e-001 -1.46483094e-001 -1.53820753e-001
      -1.02757197e-003 -2.83625759e-002 1.17148235e-002 -7.30048865e-002
      1.23096697e-001 1.93384275e-001 1.53590992e-001 -8.55010673e-002
      1.70256257e-001 1.19781829e-001 -2.14827098e-002 8.03084075e-002
      1.60325855e-001 1.37851189e-003 -2.76177153e-002 2.10099101e-001
      9.75698605e-002 2.50669599e-001 -5.31078782e-003 1.97434008e-001
      2.26787329e-001 -1.46382060e-002 4.99799773e-002 -2.82392502e-001
      2.95766927e-002 -8.04281514e-003 1.45594344e-001 -2.29449376e-001
      -3.92502137e-002 -3.29016805e-001 5.08621801e-003 1.07994616e-001
      6.42174110e-002 4.32429323e-003 -1.18160881e-001 -1.64995313e-001
      -1.43817097e-001 -9.75665748e-002 1.53219163e-001 -1.48642138e-001
      -1.76879078e-001 1.70445710e-001 -8.32214132e-002 7.77208284e-002
      -1.06060266e-001 8.07771459e-002 3.66196893e-002 3.66931073e-002
      -2.72753298e-001 7.32904077e-002 2.87814736e-002 -9.47426036e-002
      1.50229767e-001 -2.81238817e-002 -2.45947286e-001 -6.31652251e-002
      -2.53557235e-001 -5.30337878e-002 2.21685842e-001 4.47511673e-002
      -4.69806977e-002 -1.29176512e-001 -7.18124285e-002 1.85609795e-002
      2.30944395e-001 7.37338737e-002 -4.00030538e-002 -2.24092260e-001
      6.45356029e-002 2.27268264e-002 -1.43767774e-001 -4.30736579e-002
      6.68994188e-002 5.53737171e-002 1.50012538e-001 1.00229502e-001
      -2.88205538e-002 1.79271176e-001 1.22583240e-001 4.20299806e-002
      1.97153181e-001 9.21449363e-002 6.84629530e-002 -3.89075801e-002
      1.00780487e-001 5.23826517e-002 1.34288356e-001 -1.74273834e-001
      1.00644678e-001 5.72998933e-002 5.96156530e-002 1.79648399e-001
      7.31505379e-002 -1.03300586e-001 2.26723701e-001 -9.80835408e-002
      6.09801188e-002 -1.17291063e-001 1.24960840e-001 -7.65637085e-002
      1.05593279e-001 -2.97019213e-001 -9.87802371e-002 -6.21167362e-001
      -4.69868556e-002 2.76351273e-002 2.80683398e-001 -7.58067369e-002
      3.19192559e-002 6.07663915e-002 -2.15510890e-001 1.72391415e-001
      1.08615141e-002 1.10289425e-001 1.72420070e-001 -9.84145626e-002
      -7.77597353e-002 6.22442253e-002 -1.54355373e-002 -4.60598506e-002
      -4.33802884e-003 4.02431488e-002 1.71632558e-001 -1.41331464e-001
      1.98480681e-001 1.08097382e-001 -1.55686289e-001 -4.51803654e-002
      -2.29061767e-001 -4.80332375e-002 -3.18189025e-001 9.60261449e-002
      2.95812842e-002 4.51865122e-002 -1.89994313e-002 2.11680323e-001
      -1.29722834e-001 -9.70844924e-002 -8.78058001e-002 6.03595786e-002
      -4.04621065e-002 -1.61538690e-001 -1.55272678e-001 1.35400444e-001
      4.43527959e-002 4.06962335e-002 1.50099859e-001 3.11314285e-001
      2.37820745e-001 1.20768681e-001 1.54340774e-001 1.33445784e-001
      1.54575899e-001 1.37027860e-001 9.47510526e-002 9.56476927e-002
      3.73274870e-002 2.92147230e-002 -6.44984692e-002 -2.05725841e-002
      1.56825319e-001 1.30532533e-001 -4.59182262e-002 8.58077556e-002
      7.04165921e-002 -3.08754910e-002 1.96875736e-001 3.38945091e-001
      -5.18614836e-002 1.19842164e-001 -3.33839022e-002 -6.91412911e-002
      1.25095904e-001 3.24731395e-002 2.24697769e-001 -3.28594685e-001
      4.22178954e-003 9.01889652e-002 3.43130171e-001 1.95647791e-001
      6.44106120e-002 1.17406219e-001 5.72761334e-002 -4.18616794e-002
      -8.74119997e-002 -1.65742144e-001 3.74447048e-001 2.21670061e-001
      9.76268128e-002 -1.85046837e-001 -1.48621961e-001 2.60533363e-001
      1.77074835e-001 1.02404207e-002 3.01549554e-001 -1.43683523e-001
      -3.26345414e-002 -1.07107759e-002 7.08220452e-002 2.35447604e-002
      -2.17779964e-001 -2.59734571e-001 -4.13229764e-002
      -5.46197183e-002 6.59410702e-003 1.70975372e-001 3.07431310e-001
      2.02663943e-001 -2.13291496e-002 -2.47249290e-001 -1.80025950e-001
      -6.27727956e-002 -1.93569902e-002 -7.24983737e-002 6.39670938e-002
      1.93334639e-001 -3.94197330e-002 -8.92065018e-002 -1.71717703e-001
      2.55310573e-002 -4.61120084e-002 1.37988823e-002 8.03202316e-002
      -2.78679561e-002 -6.51039928e-002 1.04288831e-001 1.35275796e-001
      7.52187967e-002 1.19180344e-001 -2.26080105e-001 -1.43289352e-002
      -1.82444632e-001 -8.77248310e-003 4.88555357e-002 1.84462033e-002
      1.12699360e-001 3.40676978e-002 5.74661009e-002 -2.26104572e-001
      1.54981138e-002 -2.58023292e-001 -2.31287759e-002 -7.67855644e-002
      -6.56260848e-002 -1.99322060e-001 -2.41391696e-002
      -3.06771696e-001 2.53553629e-001 -5.85654795e-001 1.91029459e-002
      1.61527112e-001 2.07003504e-002 -7.51367137e-002 2.13344634e-001
      5.92199042e-002 2.63254136e-001 -2.73788571e-001 -5.35350367e-002
      -8.76835957e-002 6.85141906e-002 -2.60405429e-002 1.68216035e-001
      -6.82613850e-002 2.04293489e-001 -5.69703221e-001 -7.18493685e-002
      2.45875176e-002 -2.27658898e-001 -1.04810536e-001 9.76370946e-002
      3.54773611e-001 2.02469341e-002 2.33919591e-001 1.74703225e-002
      6.37823865e-002 -9.86253321e-002 -9.84521732e-002 -1.17148191e-001
      2.14816183e-001 -1.51532050e-003 6.95930868e-002 -1.03064001e-001
      9.68878642e-002 1.83910713e-001 -5.36268987e-002 -1.25361651e-001
      -8.43846276e-002 -3.94995883e-003 -2.85089901e-003
      -1.06220201e-001 -1.77213281e-001 -9.57371071e-002
      -3.43933940e-001 -5.58655448e-002 -1.50859018e-003 5.94089366e-002
      -1.45478189e-001 1.32127047e-001 -5.80914281e-002 -6.27082586e-002
      -1.03524506e-001 9.52457041e-002 -1.51386812e-001 4.81373608e-001
      3.17872584e-001 2.25353092e-001 2.93836351e-002 -5.86115122e-002
      1.35763556e-001 -5.51553309e-001 6.23838454e-002 2.97623903e-001
      -2.23258421e-001 1.46744505e-001 2.16971636e-001 -4.34815809e-002
      -1.23143882e-001 3.19359414e-002 -2.37119291e-002 2.33929470e-001
      1.67576268e-001 2.18178872e-002 1.50961712e-001 1.11037478e-001
      1.00630768e-001 -4.66457848e-003 -8.75906497e-002 -1.50535703e-001
      7.83214048e-002 -3.52256373e-002 5.25520630e-002 7.81297311e-002
      -1.13396376e-001 2.33252153e-001 6.33891374e-002 2.70987958e-001
      4.58693773e-001 -1.52232334e-001 4.40069228e-001 2.86512133e-002
      1.72745988e-001 3.34099412e-001 -3.21360268e-002 -1.12447344e-001
      -8.61720070e-002 -9.82908756e-002 -6.40641004e-002 1.53602988e-001
      5.59261292e-002 1.75039217e-001 2.25245312e-001 -7.50877634e-002
      -7.43260905e-002 -2.82936126e-001 4.30973202e-001 -1.22091599e-001
      -7.02102780e-002 -2.60382086e-001 -3.43435556e-002 1.30940586e-001
      -3.95731293e-002 1.32193863e-001 5.90628013e-002 7.55412653e-002
      2.96309859e-001 -1.68262079e-001 1.44209445e-001 -1.12100840e-001
      -1.17173173e-001 -2.20549153e-003 2.17171550e-001 -1.17321387e-001
      -7.38495961e-002 -8.86079594e-002 -3.11060935e-001 8.85158628e-002
      -1.05818599e-001 -2.53650378e-002 -2.72394363e-002 1.53538197e-001
      -7.40889683e-002 2.05152184e-002 3.88587892e-001 -1.38546759e-002
      -8.21891949e-002 -8.47534165e-002 8.11890662e-002 -1.11951701e-001
      -1.01000071e-001 -2.40523182e-002 3.56172532e-001 9.06702355e-002
      -1.76897179e-002 -4.94955741e-002 1.21793576e-001 -2.50522662e-002
      -9.01900884e-003 -8.70710611e-002 -1.08842321e-001 3.02100599e-001
      3.35791498e-001 9.78011638e-002 -1.23876162e-001 -2.08774969e-001
      -2.76289642e-001 -8.99132118e-002 -1.09741636e-001
      -1.82827562e-002 -3.69539596e-002 3.90964150e-001 1.44605443e-001
      -3.13021126e-003 -9.56989154e-002 -2.85778884e-002
      -1.35652259e-001 -1.78560048e-001 4.29874137e-002 2.58737534e-001
      1.35411248e-001 1.46680385e-001 1.67124003e-001 5.53777106e-002
      -1.25718504e-001 4.27245088e-002 -4.91218828e-002 9.58309695e-003
      -1.19053219e-002 -1.27917873e-002 -1.91968948e-001 6.75730035e-002
      9.87770855e-002 1.70007378e-001 4.50070538e-002 3.15187052e-002
      2.92988867e-001 1.14671938e-001 4.15630877e-001 -1.70798749e-001
      3.73303927e-002 -1.95808083e-001 5.27834482e-002 -2.27054983e-001
      -9.92710069e-002 2.39926148e-002 1.75575107e-001 -3.49803954e-001
      8.03792328e-002 7.61501715e-002 -1.65368676e-001 -2.36625835e-001
      -9.64664072e-002 -1.30920121e-002 1.85941860e-001 3.45360160e-001
      2.73743868e-001 1.20680831e-001 -8.48869830e-002 -6.72137812e-002
      -5.52918129e-002 -2.18261853e-002 -6.52045310e-002 2.05395684e-001
      3.08762819e-001 2.38834649e-001 -7.82828033e-002 3.70198041e-002
      -1.58720732e-001 -8.15762803e-002 -5.83226383e-002
      -1.79418415e-001 -1.89204458e-002 -1.26931310e-001
      -2.26040464e-002 2.44607091e-001 3.02272923e-002 -5.39736673e-002
      -7.39451498e-002 -1.06710367e-001 -2.11838614e-002 1.27406716e-001
      2.70204782e-001 3.01532149e-001 7.93463811e-002 -1.79505214e-001
      -7.23177940e-002 -5.33980913e-002 -5.67752495e-002
      -8.93122703e-003 -1.64609181e-003 2.60343313e-001 3.29396844e-001
      1.42304763e-001 -1.32325798e-001 3.93766128e-002 -4.86419909e-002
      -7.19740167e-002 -1.76067352e-001 -8.17873608e-003
      -1.94465667e-001 -6.40400350e-002 -7.54171088e-002 3.18655908e-001
      4.80643332e-001 1.69670001e-001 7.84847960e-002 -1.71907187e-001
      1.75386980e-001 -2.61932313e-001 -1.33319542e-001 -2.04640150e-001
      1.61794037e-001 8.57642367e-002 2.29032114e-001 2.66104825e-002
      1.43345608e-003 6.04644194e-002 4.01604474e-002 -4.37211469e-002
      6.87599033e-002 -2.51770496e-001 -1.36753529e-001 -4.10729367e-003
      -1.79674864e-001 -9.13203582e-002 -6.27019629e-002 6.76615164e-003
      -1.57193914e-002 2.17303425e-001 4.68775863e-003 2.19141990e-002
      -1.10104032e-001 2.75029242e-002 -1.77782655e-001 -2.42269784e-002
      3.78863551e-002 3.31285596e-002 1.07290410e-001 3.53459150e-001
      6.03942238e-002 7.08043426e-002 -2.83748120e-001 -9.90392640e-002
      -1.56168848e-001 -3.05149034e-002 2.96678305e-001 1.53154910e-001
      1.10867573e-002 -2.28528261e-001 -5.04327454e-002 -1.78373531e-001
      -1.00662887e-001 4.49212641e-002 2.06629615e-002 1.14087015e-001
      5.41313402e-002 -9.63914916e-002 -5.71064241e-002 -6.29411638e-003
      9.46228355e-002 -6.15894943e-002 -3.61055434e-002 5.60948886e-002
      2.94095367e-001 1.23684317e-001 -3.76222134e-002 -6.58819731e-003
      -1.07367106e-001 7.53969774e-002 -3.87670919e-002 5.18944077e-002
      2.73599904e-002 1.70469835e-001 9.13254172e-002 6.87360018e-002
      -1.26013592e-001 -1.90153882e-001 -2.29400140e-003 9.08030048e-002
      1.97566032e-001 -1.46884963e-001 -2.44866535e-001 -9.45424289e-002
      -7.29811098e-003 4.30962741e-002 -6.45669475e-002 1.13281444e-001
      1.29261971e-001 1.93325803e-002 -3.61132547e-002 -1.24739885e-001
      -1.84279695e-001 -5.06432839e-002 -1.75154969e-001 6.13083271e-003
      -8.92485157e-002 -4.52228263e-002 8.71575698e-002 1.10504895e-001
      -4.44124527e-002 -1.88910589e-001 1.03064179e-001 2.47515552e-002
      -2.04111934e-002 -2.41675489e-002 -3.64558771e-002 1.44837163e-002
      -3.77447084e-002 -1.82362214e-001 3.92554581e-001 1.05686791e-001
      4.85217161e-002 -3.64690423e-002 -1.29746944e-001 2.37760600e-002
      -9.11319405e-002 -1.45977060e-003 -2.35934313e-002 2.39636749e-001
      4.69901673e-002 -7.15314299e-002 -2.02899519e-002 -8.67130384e-002
      -2.91944984e-002 -1.78996921e-001 -5.89424409e-002 2.10779995e-001
      -6.77156076e-002 -4.60283421e-002 1.57435387e-002 1.92605890e-002
      9.25302878e-002 -1.28396377e-001 8.83003622e-002 3.02162929e-003
      9.53620002e-002 1.57968044e-001 -1.77758150e-002 -1.13602564e-001
      1.56397969e-002 -5.10893278e-002 -1.39800832e-001 1.35040894e-001
      2.33894646e-001 -8.59322101e-002 1.27798140e-001 3.41221914e-002
      -8.11331868e-002 -1.44989356e-001 -1.79125279e-001
      -5.58535196e-002 -1.05591305e-001 1.78798571e-001 9.39754248e-002
      2.38045424e-001 5.28079532e-002 6.22103140e-002 -1.09295398e-001
      4.32315394e-002 1.12598419e-001 -7.31899589e-002 8.41050893e-002
      3.90803874e-001 1.30976811e-001 3.43405530e-002 -4.77578603e-002
      1.13426819e-001 2.63165422e-002 3.04286301e-001 -6.78579435e-002
      -1.91188201e-001 -2.85700232e-001 2.42409799e-002 7.50397220e-002
      2.42407178e-003 -1.43216774e-001 -7.83853084e-002 1.53617352e-001
      1.89202607e-001 2.20836058e-001 6.18737526e-002 2.86212891e-001
      7.09524080e-002 -1.19153552e-001 -2.26216279e-002 -2.66686469e-001
      2.01632529e-002 5.05695492e-002 3.70553061e-002 -1.50138244e-001
      2.07630202e-001 1.64376184e-001 -1.11332208e-001 -3.27577926e-002
      1.08934827e-001 4.54024263e-002 2.20815744e-002 1.22152328e-001
      5.61981909e-002 -1.41837671e-001 -4.15256526e-003 -4.67268378e-003
      4.59277369e-002 -7.34645352e-002 -1.74944386e-001 -4.72846739e-002
      6.81580231e-002 1.22359879e-002 5.48781035e-003 4.29509692e-002
      -6.98992312e-002 -6.41273409e-002 -1.77084133e-002 8.34620297e-002
      5.53387702e-002 2.85182416e-001 1.95058975e-002 1.59771055e-001
      2.35491201e-001 1.14516929e-001 -3.37455869e-002 -2.45108888e-001
      -7.44021982e-002 4.86502126e-002 3.34502429e-001 6.69975728e-002
      7.08373403e-003 -9.49322730e-002 1.58138394e-001 -6.80208504e-002
      -1.27477154e-001 -1.63948387e-001 -1.71250373e-001 3.91576141e-001
      3.77895236e-001 9.66172889e-002 5.28949276e-002 -9.38837007e-002
      -1.42513692e-001 -3.31808664e-002 2.91827232e-001 9.99699309e-002
      1.37345148e-002 1.07718386e-001 3.07458878e-001 -6.33388534e-002
      -9.95744485e-003 -4.17132340e-002 8.48879069e-002 2.14851156e-001
      2.25203753e-001 -1.71373084e-001 -1.56844825e-001 1.29612669e-001
      -3.63608748e-002 6.11086749e-002 2.12557614e-001 -6.54377639e-002
      7.79606029e-002 -1.47002086e-001 1.91734552e-001 8.79219547e-002
      -2.05115285e-002 1.62841901e-002 -1.35273159e-001 -2.33761892e-001
      1.55555770e-001 4.65813614e-002 -1.06281109e-001 1.56987339e-001
      -1.56278491e-001 -2.23743066e-001 -2.02429518e-001
      -7.39144906e-002 -1.23902395e-001 5.95614128e-002 -6.19685538e-002
      -1.63171187e-001 -4.13497873e-002 7.55302086e-002 2.92274300e-002
      -8.88957158e-002 -1.18210241e-001 -1.48693249e-001 1.36038065e-002
      -1.55361712e-001 -1.08471788e-001 4.27165665e-002 -8.00023898e-002
      1.43109396e-001 -1.35219082e-001 -2.92401969e-001 -4.43509936e-001
      -8.43799040e-002 1.08076550e-001 2.47683570e-001 4.37699258e-001
      -9.83382836e-002 4.73614372e-002 3.17107290e-002 1.39188856e-001
      -7.83636570e-002 4.03814338e-004 -6.78713154e-003 -1.32979095e-001
      7.51824176e-004 1.07801877e-001 -1.04348108e-001 -5.05820327e-002
      -1.45821765e-001 -1.95820957e-001 6.42300174e-002 -1.59406364e-002
      -9.56716537e-002 4.12734635e-002 -1.65945619e-001 -2.67351240e-001
      -3.52807604e-002 -1.06318682e-001 -1.25561990e-002 1.29347265e-001
      1.13612682e-001 -1.41360551e-001 -2.18134988e-002 -1.22293301e-001
      -1.15418784e-001 4.49070620e-004 2.43987106e-002 1.11076891e-001
      -3.40955742e-002 2.01540932e-001 -5.92613257e-002 -1.45435736e-001
      2.80859530e-001 -1.92538098e-001 -2.13300020e-001 -9.33759511e-002
      -1.29175872e-001 4.60264720e-002 3.55645306e-002 -1.73162613e-002
      2.05278650e-001 -1.81617036e-001 -1.22857280e-001 6.83698282e-002
      4.18108106e-001 2.58030564e-001 -6.47272691e-002 -4.54247789e-003
      2.10473374e-001 2.83655804e-002 -7.74508044e-002 -9.47340801e-002
      -8.47413465e-002 3.93949598e-002 -3.18765827e-002 5.26776165e-002
      -9.71940681e-002 -3.52347009e-002 -1.42789766e-001
      -2.40493789e-002 1.58354566e-001 9.67441127e-002 8.55051447e-003
      -3.13847721e-001 -3.56955945e-001 -1.87525019e-001 5.21223387e-003
      -2.10384130e-002 -2.82847166e-001 -6.41470589e-003
      -4.70673107e-003 -3.29898633e-002 -3.10030907e-001 3.35958488e-002
      1.50787756e-001 1.30277395e-001 -5.66107988e-001 6.78665191e-002
      -1.33224994e-001 8.36676806e-002 -2.50901561e-002 2.23957114e-002
      1.57946154e-001 1.75427228e-001 2.09900841e-001 4.79046926e-002
      1.84295133e-001 -1.09805234e-001 -1.24766149e-001 -3.75665575e-002
      7.17848688e-002 -1.26200661e-001 -1.15849804e-002 2.97779769e-001
      -1.33967459e-001 6.44828081e-002 1.57967985e-001 -2.51043767e-001
      -1.81849882e-001 -1.55713260e-002 1.62857503e-001 5.72246194e-001
      2.37470448e-001 1.83885172e-001 -2.71922369e-002 3.04596305e-001
      -1.94308341e-001 -1.40882671e-001 -1.32685304e-001 3.25922877e-001
      2.57932007e-001 -1.91180393e-001 1.90716028e-001 1.94234073e-001
      -3.71040340e-004 -1.99746728e-001 1.79856941e-001 -1.41681999e-001
      1.23331726e-001 1.16750598e-001 -3.99874449e-001 2.16115102e-001
      -1.99936599e-001 1.16776340e-002 -2.24596381e-001 -1.48859933e-001
      -3.03512942e-002 -1.27183823e-002 -1.10188415e-002 4.07674052e-002
      3.35857878e-003 2.35915586e-001 -2.89123505e-001 -2.38376986e-002
      -1.25178218e-001 -1.01875916e-001 6.63295435e-003 3.09830662e-002
      3.00668776e-001 9.83351842e-002 3.95334303e-001 -2.33573973e-001
      -2.29710832e-001 -6.53409138e-002 -1.20445743e-001 2.20761582e-001
      6.50131777e-002 1.71070233e-001 3.49790156e-001 6.26466498e-002
      1.03884622e-001 -2.01330081e-001 -1.34931162e-001 1.74152657e-001
      -2.03593038e-002 -1.50756408e-002 2.08952110e-002 2.85692394e-001
      -1.13690771e-001 -1.18406348e-001 -2.18987003e-001
      -1.33945793e-001 -9.69926827e-003 -2.36607045e-001
      -2.88445830e-001 -2.76829693e-002 -1.28725559e-001
      -1.40204832e-001 2.51089156e-001 -1.31913960e-001 -2.90546805e-001
      -1.67335331e-001 -7.51652569e-002 -1.64977327e-001 1.33962622e-002
      -1.80899188e-001 4.55006659e-002 1.49520710e-001 -2.66223341e-001
      -8.64960477e-002 -1.33222461e-001 -5.76636405e-004 3.19017880e-002
      7.50101581e-002 1.43684506e-001 1.13861868e-003 9.30729955e-002
      -2.14588284e-001 -9.10112113e-002 -3.28262806e-001 1.49917558e-001
      3.38496506e-001 -7.80211538e-002 3.57515328e-002 -6.87783733e-002
      6.64216140e-003 2.25789085e-001 9.63103622e-002 3.73337395e-003
      -1.68768451e-001 2.26930618e-001 1.10383406e-001 8.04858655e-002
      3.90051425e-001 -3.81580740e-001 2.68032914e-003 -2.46931493e-001
      -4.09021266e-002 -5.17081795e-003 -1.29264742e-001 1.89062074e-001
      1.27645224e-001 2.09654227e-001 8.77756719e-003 -2.96986811e-002
      -7.09299743e-002 -1.96150154e-001 1.73368052e-001 1.61097318e-001
      2.09525540e-001 3.97997111e-001 9.61333364e-002 1.28980964e-001
      -2.80078202e-001 -6.89477846e-002 5.57538942e-002 6.78032637e-002
      -1.97946608e-001 4.61128280e-002 7.18431696e-002 -3.99890393e-002
      2.31475666e-001 1.84848949e-001 -1.39410481e-001 1.82816181e-002
      -7.40584731e-002 -1.91951677e-001 -9.06915665e-002
      -2.03616500e-001 -1.19563513e-001 -1.86122116e-002
      -7.40769878e-002 -1.02786809e-001 4.21251692e-002 1.66544877e-003
      -6.19337782e-002 -1.56720579e-001 -5.59005067e-002
      -5.92846014e-002 -2.17382163e-002 -1.20807819e-001
      -4.03477661e-002 -4.92910817e-002 -2.00268477e-001
      -1.29794747e-001 -9.16394591e-002 1.54406652e-001 1.19212374e-001
      3.38363349e-002 1.32802591e-001 7.05718026e-002 1.20947240e-002
      2.09306821e-001 1.30672902e-001 2.38889139e-002 -2.05843374e-001
      3.53200138e-001 1.23829290e-001 2.74862528e-001 3.69293280e-002
      7.13633150e-002 2.04383321e-002 1.85524791e-001 3.20664374e-004
      -1.73615620e-001 -9.05390754e-002 -2.67732441e-001 1.65641025e-001
      1.13561116e-001 1.29427508e-001 -8.83415565e-002 6.55461922e-002
      1.16833225e-001 2.48707920e-001 -2.30758172e-002 -5.51172458e-002
      2.00458482e-001 -5.08001260e-002 1.73705444e-001 6.07053041e-002
      8.97244588e-002 -3.22258919e-001 1.74271971e-001 4.93057430e-001
      4.21335757e-001 -1.49361998e-001 -8.83026198e-002 3.30183804e-002
      1.28649876e-001 -1.99653789e-001 -1.86223701e-001 -2.71152165e-002
      -8.08002651e-002 -9.49428454e-002 -1.47031518e-002
      -2.31889471e-001 -5.83850220e-002 2.26772148e-002 2.72982027e-002
      -2.29491647e-002 5.49491160e-002 9.34468731e-002 2.65329480e-001
      -8.30249637e-002 2.22471487e-002 1.14625283e-002 8.57940763e-002
      -1.34493951e-002 -1.75365806e-001 -2.48447180e-001
      -5.89484675e-003 1.09156027e-001 -4.83887680e-002 1.96880437e-002
      -2.62054019e-002 -1.24474257e-001 -2.41453275e-001 1.22170653e-002
      2.21526146e-001 -1.02082625e-001 -2.43018307e-002 9.58689973e-002
      6.35839850e-002 3.65367495e-002 -4.22312059e-002 -3.70820463e-002
      3.31988148e-002 1.06681988e-001 1.30858913e-001 9.45404470e-002
      -3.58200818e-001 3.72722261e-002 1.19765833e-001 1.19691342e-001
      -1.30758926e-001 1.53070971e-001 -1.53624669e-001 -1.04313903e-001
      -3.21950391e-002 -2.94797774e-002 2.80786492e-002 -2.52894405e-002
      7.57971732e-003 -7.34960958e-002 2.42957592e-001 -1.13786459e-001
      -6.69462159e-002 -2.13241056e-001 1.21193357e-001 -2.82089673e-002
      2.30918258e-001 -1.07297050e-002 -2.23307237e-001 -4.29186858e-002
      -4.58212569e-002 2.11375598e-002 -1.67278975e-001 -1.02805525e-001
      -1.44705564e-001 -6.32675961e-002 -2.76675820e-002
      -1.11495964e-001 8.95359293e-002 -1.27368525e-001 -1.44539058e-001
      9.27751809e-002 1.11438207e-001 -3.05602163e-001 -3.02201569e-001
      2.72771362e-002 2.71042585e-002 9.48603451e-002 1.09873205e-001
      1.35583147e-001 -4.59328182e-002 -2.71430552e-001 1.96794674e-001
      -1.99451461e-001 -1.86620951e-001 -2.08004862e-001
      -1.90731689e-001 -1.37880966e-002 2.71039009e-001 -1.23618238e-001
      -2.34991480e-002 2.79099606e-002 -3.29517620e-003 -1.05430096e-001
      -1.38785303e-001 1.01148263e-001 2.26328060e-001 1.51960999e-002
      2.09257752e-002 -3.73450760e-003 3.65014262e-002 1.08192459e-001
      -5.14504984e-002 -2.15378359e-001 3.77963223e-002 -1.13472663e-001
      -2.43521452e-001 5.07353023e-002 -3.73621643e-001 -4.37896065e-002
      -6.62932396e-002 6.32780641e-002 -5.69542311e-002 8.12114626e-002
      -7.20422436e-003 1.71871662e-001 1.46909982e-001 2.38566324e-002
      -4.55188863e-002 4.78058532e-002 5.07210754e-002 1.24128826e-001
      2.43670970e-001 2.60989696e-001 -3.64357941e-002 -1.97013006e-001
      3.26435506e-001 -6.98911771e-002 -1.18622214e-001 -1.13436840e-001
      1.34531841e-001 -3.85865532e-002 -2.34068915e-001 -2.79816329e-001
      -6.23993948e-002 1.49471492e-001 1.40521556e-001 -3.04897130e-002
      -9.54709426e-002 -7.05806762e-002 2.62454331e-001 -3.90000902e-002
      -2.36670658e-001 9.06474590e-002 2.75454700e-001 3.58406939e-002
      -6.12013461e-003 -4.44785245e-002 -3.08263283e-002 2.30228305e-001
      2.40265399e-001 1.33267902e-002 3.15942168e-002 -1.68844387e-001
      3.37833703e-001 -2.38394529e-001 -1.21232886e-002 5.49553670e-002
      5.33039160e-002 1.23050921e-001 5.77921681e-002 -4.24240708e-001
      -4.09799255e-002 4.16535139e-002 2.41260991e-001 -4.05712202e-002
      -1.88940674e-001 1.80460170e-001 1.68267965e-001 1.69028997e-001
      1.23567313e-001 -7.38161877e-002 -1.58768281e-001 5.45448288e-002
      -9.90350163e-005 -7.14392141e-002 3.56243961e-002 7.73239806e-002
      -1.18556879e-001 8.61284286e-002 -1.95216134e-001 -4.05269861e-002
      -1.40357032e-001 8.16208720e-002 -8.35342407e-002 1.65008664e-001
      1.04292750e-001 2.01829404e-001 7.05471411e-002 4.00225222e-002
      -3.55750062e-002 -4.33376878e-002 -2.12359298e-002
      -2.33280823e-001 -1.78965330e-001 -2.41022736e-001 4.72767465e-002
      1.32052839e-001 1.13508567e-001 -2.40876868e-001 -3.61009717e-001
      -1.48029979e-002 -3.13852169e-002 -1.82845503e-001
      -1.18629754e-001 1.66435331e-001 2.09095124e-002 1.84395686e-001
      1.25343174e-001 -8.80189613e-002 1.16428308e-001 1.51955754e-001
      7.95037225e-002 -2.79818088e-001 -4.14957702e-002 1.11050889e-001
      3.21519375e-001 8.59155580e-002 -2.80308388e-002 -2.95092553e-001
      -3.20271224e-001 -9.52273160e-002 2.83900797e-001 -1.66111141e-002
      -1.76452890e-001 -1.21323332e-001 -4.22274396e-002
      -2.20405340e-001 9.72815673e-004 -1.87166557e-001 3.37346829e-002
      4.77933079e-001 2.20329270e-001 1.91194727e-003 2.55073607e-002
      6.48081899e-002 -1.40171396e-002 -1.03638940e-001 7.72834336e-003
      6.95095062e-002 2.03947529e-001 1.66146457e-001 1.71689495e-001
      -7.37818852e-002 -6.53296523e-003 7.79505447e-002 -3.19666803e-001
      -1.55797213e-001 -1.40937380e-002 1.19658299e-001 1.23939790e-001
      -2.30497718e-001 3.50383371e-002 -2.59969920e-001 -4.59329933e-001
      1.52469680e-001 -2.62930468e-002 1.36495933e-001 2.43201509e-001
      2.64390290e-001 3.87249934e-003 1.72474802e-001 1.03967294e-001
      1.96007162e-001 1.83685750e-001 1.52575538e-001 1.36210546e-001
      -8.03499296e-002 -1.71050727e-001 -2.98162907e-001
      -2.66673297e-001 4.25257832e-002 -1.00210443e-001 -2.01146483e-001
      -1.11193106e-001 1.82598576e-001 8.68048295e-002 -1.75135702e-001
      2.41456106e-001 -1.47907892e-002 -4.93204258e-002 -2.00827464e-001
      1.12954579e-001 -2.59473592e-001 2.76170447e-002 1.81399047e-001
      -7.49259740e-002 -1.38518170e-001 2.20845863e-001 9.57570300e-002
      1.19782411e-001 7.57290125e-002 -3.07312869e-002 -3.38074178e-001
      2.05751136e-001 1.89722255e-001 -3.76517296e-001 -3.30765665e-001
      1.83480486e-001 4.38247696e-002 1.34309396e-001 9.76284593e-002
      2.46768054e-002 1.09757394e-001 -3.37228894e-001 7.24454969e-002
      -1.83357683e-003 2.01722756e-001 8.39610174e-002 1.30541697e-001
      -1.01253726e-001 1.09731339e-001 1.72422051e-001 2.02691346e-001
      1.42039448e-001 2.60933246e-002 -1.73478007e-001 -4.05281447e-002
      -1.18431568e-001 -1.77429188e-002 -1.11992925e-001
      -6.81708157e-002 5.16451225e-002 -3.72891724e-002 3.27168465e-001
      9.29389298e-002 3.69320810e-002 -3.22547667e-002 -1.59929037e-001
      8.35137069e-002 1.42410010e-001 1.69967949e-001 4.20939118e-001
      -2.26350620e-001 -1.23037800e-001 -1.09855257e-001 1.06347755e-001
      4.37843353e-001 3.48767936e-001 -1.16015248e-001 -1.31438538e-001
      1.73866898e-001 2.65699476e-001 -9.72138420e-002 -1.53402030e-001
      2.25166529e-002 1.63315624e-001 2.07241610e-001 -1.66522712e-001
      -3.01992208e-001 -2.68661797e-001 1.29781500e-001 1.46165758e-001
      -2.53425002e-001 2.40639430e-002 -2.81070657e-002 1.22425772e-001
      9.98114571e-002 -2.71058958e-002 -4.55545075e-002 3.36225517e-002
      8.41927081e-002 2.12180227e-001 -2.93939799e-001 5.30595966e-002
      1.28413394e-001 5.39176874e-002 -1.03952564e-001 2.21929520e-001
      3.16229790e-001 2.27873415e-001 -4.23980430e-002 5.19852573e-003
      -2.97946483e-002 1.85454398e-001 4.66802232e-002 -2.56015033e-001
      7.97473639e-002 -1.41269073e-001 2.93367878e-002 -3.91956866e-002
      -1.06714003e-001 1.35024905e-001 1.36591122e-001 -8.98278356e-002
      -1.15137815e-001 1.32743478e-001 -7.05955997e-002 -5.10852076e-002
      4.68159094e-002 -1.37291044e-001 -8.67141187e-002 6.38094991e-002
      5.99869043e-002 5.07780258e-003 -3.25056762e-002 2.60786086e-001
      3.21153939e-001 9.87164900e-002 -4.33267243e-002 8.14059749e-004
      -2.46285036e-001 -1.07779488e-001 8.97659361e-002 -9.53786299e-002
      -1.35440454e-001 -1.49939721e-002 -3.36371735e-002
      -4.61802594e-002 -2.40345508e-001 -3.06553274e-001
      -9.90163684e-002 5.65602034e-002 -9.91321504e-002 2.17002351e-002
      -7.61869028e-002 -2.14754622e-002 -1.36926875e-001
      -4.31237891e-002 -7.41302371e-002 -2.70856380e-001
      -2.54317969e-001 -3.22782099e-001 8.65924433e-002 -2.55802255e-002
      -2.06410885e-001 -9.92498100e-002 -1.08386837e-001
      -2.87348539e-001 -3.48682344e-001 -2.64034063e-001 1.16855413e-001
      9.34206545e-002 1.58111513e-001 5.73047064e-003 -1.67840302e-001
      -3.33318412e-001 -1.90148711e-001 -9.14873928e-002
      -6.66542724e-002 1.20640539e-001 -1.41835436e-001 1.69398099e-001
      1.53995091e-002 -1.47563770e-001 -1.34301245e-001 2.60850221e-001
      1.25041887e-001 -1.60032094e-001 -2.01638546e-002 8.98959115e-003
      -2.86993384e-001 -2.44145542e-001 -1.15426905e-001
      -6.66672811e-002 2.85245478e-001 -1.26189083e-001 -5.71567193e-002
      -3.11354607e-001 2.74266452e-001 1.39112294e-001 -8.73641297e-002
      1.05024032e-001 2.79618632e-002 -1.95319340e-001 -1.66321948e-001
      -5.64437993e-002 4.58715893e-002 2.06278950e-001 1.25685364e-001
      -7.42893890e-002 1.02820836e-001 1.81894109e-001 -2.89259702e-001
      8.90040118e-003 2.02048957e-001 2.08190829e-002 -1.16160795e-001
      -1.34021074e-001 3.06763891e-002 1.32448703e-001 -1.08060881e-001
      9.33815027e-004 -9.98083409e-003 -5.84608428e-002 -1.49272218e-001
      -1.01873599e-001 6.32657856e-002 -1.48835048e-001 1.41269669e-001
      -8.33056718e-002 3.06841731e-002 -2.14091152e-001 6.17406331e-002
      -1.54170329e-002 1.91990621e-002 1.08478665e-001 6.07682429e-002
      -1.26042262e-001 -5.15021086e-002 -3.59822154e-001 7.70318210e-002
      3.86237770e-001 2.67725289e-001 -1.49452239e-002 7.88013116e-002
      4.89654168e-002 -9.83964205e-002 -2.29916990e-001 -2.25457355e-001
      6.62645102e-002 6.89822342e-003 -7.15175783e-003 -2.31417388e-001
      3.26836780e-002 2.54310556e-002 -2.27052853e-001 -2.45314091e-001
      -3.77825648e-001 3.14140283e-002 2.57255077e-001 2.33554497e-001
      6.33147061e-002 2.48838544e-001 -1.25493407e-001 -2.75200695e-001
      1.76564008e-001 -1.98992789e-001 5.41925430e-002 1.25937298e-001
      -4.18684222e-002 2.97785074e-001 1.12248830e-001 -7.98779801e-002
      4.33873311e-002 8.98023248e-002 7.33468868e-003 4.54869233e-002
      5.47654666e-002 -1.93249196e-001 -2.04304323e-001 5.75667471e-002
      8.86856318e-002 -2.15663061e-001 -6.16075508e-002 2.59624034e-001
      4.18708920e-002 2.98788786e-001 2.97872037e-001 -3.31866033e-002
      -1.38916031e-001 -7.15055596e-003 8.59471112e-002 -3.68621275e-002
      3.14352335e-004 1.80782583e-002 4.29618418e-001 -9.00046341e-003
      -6.73344657e-002 6.98021203e-002 -9.26198065e-002 -6.31547160e-003
      8.02765265e-002 2.18674287e-001 -7.68818930e-002 2.13098764e-001
      -1.42393187e-001 3.89269553e-002 2.09431320e-001 -1.81298498e-002
      2.68871784e-002 1.56273544e-002 -3.90006267e-002 -5.63568249e-002
      -9.91181508e-002 9.42105576e-002 -9.44561362e-002 -8.06556642e-002
      2.39484578e-001 -9.27062612e-003 -1.51853606e-001 4.65256423e-002
      1.58160239e-001 1.07624121e-001 8.32433105e-002 2.01163352e-001
      -3.97421680e-002 8.71637315e-002 -1.43245667e-001 -6.85171112e-002
      -2.43861228e-001 -8.82937610e-002 2.37049595e-001 1.79150417e-001
      -1.86699408e-003 9.39454436e-002 -5.97163104e-002 7.85943046e-002
      -1.73048437e-001 -3.10864151e-001 -1.94317967e-001 1.20687731e-001
      -1.15833782e-001 -7.82072470e-002 9.34404880e-003 5.13389632e-002
      8.38167593e-002 -8.61237198e-003 2.68730372e-001 2.38608673e-001
      1.30103588e-001 -2.95018088e-002 -3.11902076e-001 -2.62133390e-001
      8.87217280e-003 -5.95746338e-002 -8.32483023e-002 8.48584101e-002
      -1.17565751e-001 -4.94174995e-002 1.93997189e-001 7.41400048e-002
      1.69699118e-001 -2.27579679e-002 -1.15772679e-001 6.07941486e-002
      -1.38059437e-001 -3.29076827e-001 3.56709026e-002 1.21584311e-002
      8.21545944e-002 1.25466632e-002 3.84977320e-003 -5.23440987e-002
      7.65398517e-002 1.44705370e-001 5.21779135e-002 1.39252692e-001
      -5.35824038e-002 -3.48575823e-002 1.03949659e-001 2.91372873e-002
      1.64516747e-001 9.73442104e-003 8.81907269e-002 1.40169933e-001
      1.41757861e-001 1.13608852e-001 -7.21355826e-002 -9.79131833e-002
      1.33675009e-001 8.24595392e-002 5.00918403e-002 1.01783633e-001
      1.74454488e-002 1.18063293e-001 1.07372597e-001 8.03801641e-002
      1.34958895e-002 8.89611840e-002 1.07597463e-001 1.28683373e-001
      -1.50546171e-002 -1.52644152e-002 1.33971676e-001 7.31710270e-002
      6.63607270e-002 -8.60346109e-002 -6.99332356e-002 6.79872707e-002
      7.87747353e-002 6.86944127e-002 -3.64680551e-002 2.96889901e-001
      -2.18936473e-001 -5.25923371e-002 -4.93742675e-002 2.31581414e-003
      8.02869946e-002 -1.87286839e-001 1.90907195e-002 1.07081026e-001
      3.15397084e-001 3.20524573e-001 -1.37431502e-001 -1.86936229e-001
      8.56153853e-003 8.66261497e-002 1.72820851e-001 -1.10814646e-002
      1.34609252e-001 -1.97447062e-001 8.53764080e-003 2.09634319e-001
      2.58916188e-002 6.08615614e-002 -5.22624813e-002 8.40825960e-002
      2.47178748e-001 -1.91315785e-001 -2.02038988e-001 -1.85161173e-001
      1.31080881e-001 -3.65687013e-001 -1.94943100e-001 -6.01534732e-002
      -2.99655739e-002 2.45484546e-001 2.30886817e-001 1.08431853e-001
      6.29480258e-002 -2.13115979e-002 1.88332483e-001 1.05647340e-001
      4.57096659e-002 1.45184493e-003 -5.73729537e-002 1.29067451e-001
      1.03271138e-002 9.87135246e-002 1.27269566e-001 -2.49540675e-002
      2.22500786e-002 -7.73869678e-002 2.00404450e-002 4.32235599e-002
      1.78692907e-001 1.92523018e-001 -7.40825236e-002 1.15311526e-001
      1.80086032e-001 -7.82054216e-002 1.08973287e-001 -2.94192620e-002
      1.10754266e-001 2.68071909e-002 -6.08515833e-003 7.04968944e-002
      8.50534663e-002 7.51334503e-002 4.96527068e-002 1.30713955e-001
      5.48938066e-002 2.26915758e-002 2.64490787e-002 3.30149889e-001
      -1.54094651e-001 -2.65837871e-002 -1.61599264e-001 2.46345475e-002
      1.63169920e-001 -9.84023232e-003 3.78771219e-003 -2.16500964e-002
      8.38070437e-002 6.07602410e-002 -1.45916939e-001 -7.96759725e-002
      -7.26069361e-002 -1.15951329e-001 -1.85848773e-001
      -1.91223904e-001 -2.11725131e-001 -3.38678718e-001
      -2.58092396e-002 4.92926948e-002 -1.49134517e-001 -2.31915966e-001
      1.81931816e-002 1.55018985e-001 1.06945083e-001 -3.11025269e-002
      1.36768296e-001 -7.21163601e-002 6.22719303e-002 -2.32641980e-001
      -1.92678407e-001 2.25827008e-001 1.77744061e-001 2.07309693e-001
      8.80090073e-002 -4.33158949e-002 1.41151119e-002 6.40911609e-002
      6.89755678e-002 3.71081442e-001 -3.30278397e-001 8.57637227e-002
      -1.21920340e-001 8.89064670e-002 -5.57465181e-002 1.51003882e-001
      1.91696301e-001 -1.18535593e-001 -1.70156553e-001 -5.74740209e-002
      1.22576907e-001 -4.46672514e-002 2.37814784e-001 7.80376047e-002
      -1.00991905e-001 -3.43075953e-003 1.89019188e-001 -9.32275411e-003
      2.09878027e-001 -1.73366860e-001 -8.07279423e-002 -2.45909423e-001
      -6.38483688e-002 8.68779272e-002 -8.58711824e-002 1.54606730e-001
      3.03574372e-002 -1.41033739e-001 1.73894286e-001 -1.81994528e-001
      1.85546473e-001 5.05183786e-002 8.77608955e-002 -1.89105242e-001
      -8.37887153e-002 1.53273880e-001 1.65944755e-001 -6.71219379e-002
      -1.04066007e-001 -1.52272508e-001 2.43825410e-002 9.45943072e-002
      -8.75975490e-002 2.66319816e-003 1.49783164e-001 1.55222937e-001
      4.77901548e-002 -1.23506926e-001 -2.67830551e-001 -1.03472471e-001
      -2.49191657e-001 -3.59819680e-002 2.20873095e-002 -2.06786394e-002
      1.46367729e-001 -2.60461718e-002 -4.66180928e-002 4.55314815e-002
      -1.18156046e-001 -5.99375740e-002 -1.89513862e-001
      -9.61374491e-002 -7.80582204e-002 -3.68930511e-002 3.20210338e-001
      4.83394042e-002 1.15614489e-001 -1.42640367e-001 2.53984720e-001
      6.67795241e-002 -7.73871988e-002 1.13458686e-001 -2.37172604e-001
      3.33980501e-001 -5.00805497e-001 -1.13129698e-001 1.93392932e-001
      -5.29387482e-002 -2.20171679e-002 8.15661177e-002 2.72652626e-001
      5.32920472e-002 1.02561533e-001 -9.66934040e-002 3.11283439e-001
      -1.68466475e-002 5.93647622e-002 -2.03726724e-001 1.87980726e-001
      1.05297245e-001 -9.56977978e-002 -1.70845091e-001 -1.41608238e-001
      5.66291772e-002 5.38245915e-003 2.14329630e-001 1.42195418e-001
      1.22837193e-001 -8.63706023e-002 -2.75191337e-001 1.16416946e-001
      -1.05000988e-001 -1.37607545e-001 6.11701496e-002 -1.86081100e-002
      -2.20619172e-001 2.03354433e-002 5.44753112e-002 -1.81555420e-001
      4.28500026e-002 2.27018446e-001 4.83099259e-002 -2.55698055e-001
      1.73522204e-001 8.62414688e-002 2.84946635e-002 -1.07975617e-001</_></support_vectors>
  <decision_functions>
    <_>
      <sv_count>1</sv_count>
      <rho>2.4347101343573499e-001</rho>
      <alpha>
        1.</alpha>
      <index>
        0</index></_></decision_functions></svm>
</opencv_storage>
